~o
<STREAMINFO> 1 39
<VECSIZE> 39<NULLD><MFCC_D_A_0><DIAGC>
~h "open"
<BEGINHMM>
<NUMSTATES> 6
<STATE> 2
<MEAN> 39
 -1.505647e+01 5.823510e+00 -4.807746e+00 9.648365e+00 2.301564e+00 3.146288e+00 -5.196090e+00 7.053096e+00 6.742177e-01 3.760812e+00 -5.551651e+00 1.536451e+00 4.601725e+01 -1.538826e-01 -1.401543e-01 -5.972592e-02 -2.696970e-02 1.421477e-02 3.423077e-03 3.154124e-02 4.486521e-02 8.462819e-02 4.748143e-02 -1.329895e-02 -1.284891e-02 -7.544836e-02 5.055369e-02 2.873748e-02 -6.258121e-03 -2.839545e-02 -3.586501e-02 -1.134082e-02 -1.493155e-03 -1.816881e-02 -4.227588e-02 -1.714786e-02 7.001716e-03 3.747734e-05 2.726898e-02
<VARIANCE> 39
 3.605621e+01 2.683152e+01 3.090892e+01 2.090215e+01 2.282749e+01 1.984554e+01 2.612828e+01 1.667888e+01 2.844021e+01 1.517564e+01 2.414870e+01 1.043274e+01 1.613125e+01 5.744362e-01 6.958320e-01 4.204655e-01 6.022091e-01 9.356135e-01 1.304776e+00 1.619899e+00 9.649183e-01 1.308732e+00 9.705011e-01 1.342219e+00 9.307786e-01 2.380913e-01 9.185793e-02 1.116074e-01 7.580219e-02 1.047148e-01 1.928183e-01 2.621042e-01 3.005979e-01 1.889097e-01 2.378537e-01 1.751872e-01 2.229191e-01 1.640895e-01 4.103013e-02
<GCONST> 8.402581e+01
<STATE> 3
<MEAN> 39
 -4.868618e+00 6.157812e+00 -9.600053e+00 4.446603e+00 -5.193084e+00 -4.991798e+00 -4.731864e+00 1.114164e+01 -5.394270e-01 -7.434193e-01 -7.856454e+00 -5.219942e-01 5.308817e+01 2.874062e+00 2.584640e-01 6.504583e-01 1.781251e-01 -2.422319e+00 -3.568068e+00 -6.353514e-01 1.413657e+00 2.276952e-01 -1.599209e+00 -3.291093e-01 -6.600515e-03 2.261759e+00 1.036785e-01 -2.652263e-01 2.024824e-01 2.070522e-01 -1.293583e-01 -3.601776e-01 -1.706464e-01 2.368209e-01 2.610303e-01 -1.012573e-01 -1.672227e-02 1.255252e-01 2.324295e-01
<VARIANCE> 39
 9.305562e+01 2.145645e+01 8.179015e+01 4.873149e+01 7.205970e+01 1.802341e+02 4.028898e+01 5.193956e+01 4.143422e+01 4.197351e+01 2.538544e+01 1.216965e+01 4.895776e+01 6.847625e+00 3.000324e+00 4.133294e+00 4.386160e+00 5.910033e+00 1.506784e+01 3.679398e+00 5.643920e+00 4.080753e+00 3.734115e+00 2.086406e+00 2.036937e+00 3.976548e+00 1.567168e+00 5.718580e-01 4.089540e-01 5.192980e-01 1.200973e+00 2.709721e+00 5.764113e-01 1.141656e+00 5.612664e-01 7.748712e-01 3.772323e-01 3.690161e-01 6.917316e-01
<GCONST> 1.366933e+02
<STATE> 4
<MEAN> 39
 7.168659e+00 4.200204e+00 3.951232e+00 1.042644e+01 -9.006403e+00 -1.981851e+01 -1.361997e+01 1.426938e+01 -3.952951e+00 -9.710367e+00 -8.596817e+00 1.639755e+00 6.765193e+01 -2.899013e-02 -1.249283e-01 -1.958988e-01 5.550290e-03 4.730496e-01 6.747979e-01 3.258562e-01 -4.014124e-01 -6.333793e-01 9.613546e-02 1.018938e-01 -5.226012e-02 -1.124826e-02 -6.402916e-02 1.010127e-01 -4.925617e-02 -1.818090e-02 5.614952e-02 1.467913e-01 5.241761e-02 -4.800016e-02 -1.024381e-02 6.130145e-02 -2.696775e-03 -5.316886e-02 -1.154938e-01
<VARIANCE> 39
 1.267257e+01 5.619167e+01 7.465313e+01 3.066676e+01 6.079084e+01 8.804542e+01 1.063572e+02 6.301122e+01 1.260436e+02 3.995983e+01 4.536522e+01 2.963800e+01 2.224499e+01 1.398642e+00 3.486226e+00 2.606573e+00 2.683916e+00 1.690755e+00 3.224719e+00 3.568241e+00 2.685624e+00 4.076543e+00 3.374889e+00 2.510601e+00 1.923671e+00 1.807163e+00 3.327611e-01 4.252502e-01 2.675835e-01 4.886766e-01 3.756129e-01 8.474678e-01 4.102126e-01 5.734328e-01 6.350078e-01 6.394168e-01 4.835490e-01 3.835210e-01 2.447232e-01
<GCONST> 1.239055e+02
<STATE> 5
<MEAN> 39
 -4.437785e+00 1.085607e+01 -2.401889e+00 1.241630e+01 2.660578e+00 1.610632e+00 -4.664869e+00 6.373748e+00 -5.987410e+00 -2.226786e+00 -8.868704e+00 -3.854551e-01 5.220135e+01 -6.407044e-01 2.172868e-01 1.823543e-01 2.276113e-02 2.129045e-01 3.883831e-01 -1.386631e-01 6.021663e-03 5.529499e-01 2.552314e-01 -9.824896e-02 6.866629e-03 -5.593956e-01 -4.775681e-04 -4.666035e-02 4.763711e-03 -1.728912e-02 -1.644862e-03 -4.060827e-02 2.680947e-03 -2.715839e-03 -3.959867e-02 -1.574747e-02 1.152485e-02 2.538488e-02 3.378762e-02
<VARIANCE> 39
 5.799690e+01 1.955630e+01 2.593785e+01 2.191928e+01 2.143267e+01 3.695032e+01 3.351480e+01 2.110613e+01 5.449318e+01 2.543394e+01 2.306250e+01 1.098607e+01 3.261340e+01 2.552723e-01 7.139015e-01 7.147505e-01 1.002391e+00 8.668488e-01 1.142538e+00 1.668787e+00 1.364012e+00 1.529965e+00 9.914082e-01 1.480113e+00 8.938236e-01 1.889548e-01 3.346089e-02 6.168806e-02 9.249989e-02 1.818257e-01 1.656934e-01 1.792867e-01 3.106308e-01 2.320128e-01 2.752390e-01 1.872930e-01 2.931154e-01 1.706421e-01 1.147926e-02
<GCONST> 8.550842e+01
<TRANSP> 6
 0.000000e+00 1.000000e+00 0.000000e+00 0.000000e+00 0.000000e+00 0.000000e+00
 0.000000e+00 9.610389e-01 3.896103e-02 0.000000e+00 0.000000e+00 0.000000e+00
 0.000000e+00 0.000000e+00 8.899083e-01 1.100918e-01 0.000000e+00 0.000000e+00
 0.000000e+00 0.000000e+00 0.000000e+00 9.699248e-01 3.007519e-02 0.000000e+00
 0.000000e+00 0.000000e+00 0.000000e+00 0.000000e+00 9.657143e-01 3.428571e-02
 0.000000e+00 0.000000e+00 0.000000e+00 0.000000e+00 0.000000e+00 0.000000e+00
<ENDHMM>
