~o
<STREAMINFO> 1 39
<VECSIZE> 39<NULLD><MFCC_D_A_0><DIAGC>
~h "open"
<BEGINHMM>
<NUMSTATES> 6
<STATE> 2
<MEAN> 39
 -1.450217e+01 4.179527e+00 -7.874531e+00 8.147081e+00 2.891811e+00 2.963837e+00 -5.676215e+00 7.552618e+00 7.971486e-01 2.743929e+00 -7.791832e+00 1.426921e+00 4.656242e+01 -2.999358e-01 -3.021683e-01 -8.319041e-02 1.111387e-01 8.448353e-02 3.712553e-02 1.412100e-01 1.439456e-01 1.236928e-01 -1.042403e-02 -1.112390e-01 1.595310e-02 -1.476054e-01 4.861958e-02 5.969736e-02 2.541320e-02 -2.439989e-02 -3.449329e-02 1.400687e-03 5.153993e-02 -1.301137e-02 -3.792523e-02 8.962708e-03 1.207300e-02 -7.961662e-03 2.698776e-02
<VARIANCE> 39
 2.693862e+01 2.122909e+01 2.123309e+01 2.541406e+01 1.145481e+01 1.690643e+01 1.758313e+01 1.838408e+01 3.077297e+01 1.595779e+01 2.401887e+01 5.324159e+00 1.076399e+01 1.539647e-01 6.791529e-01 2.722222e-01 9.402945e-01 6.972545e-01 1.510151e+00 1.561230e+00 8.782455e-01 1.096047e+00 8.359461e-01 1.019280e+00 5.079659e-01 9.851158e-02 3.617839e-02 1.294224e-01 6.838372e-02 1.131754e-01 1.549618e-01 2.650428e-01 2.374638e-01 1.659409e-01 2.122185e-01 1.721382e-01 1.613514e-01 9.764132e-02 2.274409e-02
<GCONST> 7.457336e+01
<STATE> 3
<MEAN> 39
 3.607218e+00 4.736117e+00 8.812806e+00 8.514517e+00 -1.277879e+01 -1.871141e+01 -1.792391e+01 1.370941e+01 3.650659e+00 -9.195034e+00 -8.759920e+00 3.477406e-01 6.664370e+01 7.289855e-01 -2.914170e-01 8.261140e-02 -2.050744e-01 -1.962974e-01 -6.221918e-01 1.315004e-02 4.980946e-03 -2.835924e-01 -5.272006e-01 -1.093880e-01 1.420938e-01 8.953303e-01 -1.385992e-02 -5.750938e-02 -5.255736e-02 3.258565e-02 7.743917e-02 1.997678e-02 6.812460e-02 -7.521554e-03 -7.855298e-02 2.999430e-02 2.390710e-02 5.486121e-02 -1.954402e-02
<VARIANCE> 39
 5.043021e+01 4.693357e+01 8.243335e+01 2.576210e+01 8.109274e+01 1.307043e+02 9.792609e+01 7.128952e+01 4.134006e+01 4.619415e+01 4.601679e+01 1.913155e+01 7.116057e+01 4.796209e+00 5.117273e+00 3.692540e+00 2.907031e+00 7.630949e+00 1.292293e+01 5.589194e+00 5.201873e+00 4.868098e+00 3.355157e+00 1.884905e+00 2.197904e+00 4.234857e+00 8.298592e-01 7.583026e-01 2.737663e-01 5.053985e-01 1.075657e+00 2.266690e+00 5.840910e-01 9.567072e-01 8.032917e-01 5.109407e-01 3.506362e-01 4.296124e-01 5.704868e-01
<GCONST> 1.375433e+02
<STATE> 4
<MEAN> 39
 6.693176e+00 1.165407e+00 -8.024030e+00 8.651469e+00 -3.336122e+00 -6.374509e+00 8.136526e-01 3.174290e+00 -1.553116e+01 -3.654544e+00 -5.270888e+00 -1.186723e-01 6.539751e+01 -3.028944e-01 7.948776e-01 -9.056515e-02 3.748802e-01 1.264311e-01 7.804596e-01 -1.487642e-01 -2.229721e-01 -4.781225e-02 6.090448e-01 2.090605e-01 -4.092363e-01 -9.366886e-01 -5.280094e-02 8.114780e-02 8.318344e-02 -1.262254e-02 -1.032571e-02 1.150158e-02 -1.777313e-01 6.832677e-02 2.771813e-01 -1.775112e-02 -8.200641e-02 -6.089154e-02 -2.216458e-02
<VARIANCE> 39
 5.898681e+00 4.197205e+01 1.536776e+01 2.638791e+01 1.484556e+01 6.258042e+01 2.580471e+01 1.805696e+01 3.529371e+01 4.240498e+01 2.305192e+01 2.069592e+01 3.444358e+01 4.251285e-01 5.007851e-01 6.283790e-01 1.526850e+00 9.532296e-01 9.880706e-01 2.599702e+00 1.635086e+00 3.810219e+00 1.025087e+00 1.571621e+00 8.447613e-01 3.160353e-01 6.811415e-02 9.828110e-02 7.526010e-02 2.026366e-01 1.854198e-01 2.056942e-01 3.819657e-01 2.754154e-01 3.706184e-01 1.815563e-01 2.016351e-01 2.127869e-01 4.318779e-02
<GCONST> 8.978539e+01
<STATE> 5
<MEAN> 39
 -7.273621e+00 8.626209e+00 -5.456850e+00 1.005826e+01 3.387709e+00 1.673754e+00 -7.005413e+00 6.859681e+00 -3.452371e-01 6.018790e-02 -1.142995e+01 -7.824858e-01 5.056818e+01 -4.606501e-01 -1.054628e-01 -5.380739e-02 -1.250663e-01 3.663915e-02 1.075918e-01 1.356831e-02 2.307100e-01 4.123349e-01 1.193333e-01 -9.411284e-02 5.031018e-02 -3.076462e-01 2.235605e-02 -1.680960e-02 1.456069e-03 2.620534e-03 -4.175395e-02 -2.321343e-02 8.204779e-03 -1.473612e-02 -5.138424e-02 2.846540e-03 3.389589e-02 8.242501e-03 2.361577e-02
<VARIANCE> 39
 2.635432e+01 9.583981e+00 1.993559e+01 3.265014e+01 2.097020e+01 2.898375e+01 3.672861e+01 2.232969e+01 2.821338e+01 1.110836e+01 1.335519e+01 9.329628e+00 1.069937e+01 5.150205e-01 2.956888e-01 9.571218e-01 1.582132e+00 1.134455e+00 1.172653e+00 2.335824e+00 1.017647e+00 1.555992e+00 1.060616e+00 1.647742e+00 4.397850e-01 2.167281e-01 6.343991e-02 4.571697e-02 1.110627e-01 2.906590e-01 2.336683e-01 1.758879e-01 4.235303e-01 1.619565e-01 2.586767e-01 2.168088e-01 3.595328e-01 6.580606e-02 2.192423e-02
<GCONST> 8.249081e+01
<TRANSP> 6
 0.000000e+00 1.000000e+00 0.000000e+00 0.000000e+00 0.000000e+00 0.000000e+00
 0.000000e+00 9.583333e-01 4.166666e-02 0.000000e+00 0.000000e+00 0.000000e+00
 0.000000e+00 0.000000e+00 9.680851e-01 3.191489e-02 0.000000e+00 0.000000e+00
 0.000000e+00 0.000000e+00 0.000000e+00 9.464286e-01 5.357143e-02 0.000000e+00
 0.000000e+00 0.000000e+00 0.000000e+00 0.000000e+00 9.655172e-01 3.448276e-02
 0.000000e+00 0.000000e+00 0.000000e+00 0.000000e+00 0.000000e+00 0.000000e+00
<ENDHMM>
