~o
<STREAMINFO> 1 39
<VECSIZE> 39<NULLD><MFCC_D_A_0><DIAGC>
~h "open"
<BEGINHMM>
<NUMSTATES> 6
<STATE> 2
<MEAN> 39
 -1.506585e+01 5.802306e+00 -4.827910e+00 9.620935e+00 2.281256e+00 3.149707e+00 -5.181507e+00 7.045262e+00 6.408590e-01 3.751564e+00 -5.531575e+00 1.535976e+00 4.601286e+01 -1.492177e-01 -1.331603e-01 -5.553606e-02 -2.635866e-02 1.132180e-02 -3.204412e-04 2.777706e-02 3.799268e-02 7.602708e-02 4.538693e-02 -1.343204e-02 -1.372764e-02 -7.429098e-02 5.365992e-02 3.256707e-02 -4.171361e-03 -2.742863e-02 -3.643132e-02 -1.276370e-02 -2.890944e-03 -1.868957e-02 -4.029452e-02 -1.670337e-02 4.360585e-03 -1.283382e-03 2.869489e-02
<VARIANCE> 39
 3.596661e+01 2.688316e+01 3.093412e+01 2.106624e+01 2.288064e+01 1.978493e+01 2.610922e+01 1.664380e+01 2.869093e+01 1.515287e+01 2.419467e+01 1.039905e+01 1.608497e+01 5.792796e-01 7.086462e-01 4.245117e-01 6.003754e-01 9.351636e-01 1.304869e+00 1.619020e+00 9.763430e-01 1.327283e+00 9.687118e-01 1.337881e+00 9.280038e-01 2.377334e-01 9.453243e-02 1.157632e-01 7.689805e-02 1.046638e-01 1.922932e-01 2.618794e-01 3.002268e-01 1.883818e-01 2.382930e-01 1.746812e-01 2.243462e-01 1.640959e-01 4.152360e-02
<GCONST> 8.417072e+01
<STATE> 3
<MEAN> 39
 3.251525e+00 6.242383e+00 2.908766e+00 8.864161e+00 -9.994567e+00 -1.726152e+01 -1.471439e+01 1.485673e+01 1.875621e+00 -7.552279e+00 -9.192587e+00 1.342337e+00 6.314697e+01 8.631867e-01 -1.571270e-01 1.361528e-01 -5.969794e-02 -2.564738e-01 -7.486836e-01 -1.451792e-01 2.141882e-01 -2.914564e-01 -6.395395e-01 -1.954101e-01 4.272958e-02 8.974788e-01 5.278958e-03 -7.099225e-02 -3.202405e-02 4.049492e-02 4.587366e-02 -9.285308e-03 6.054052e-02 7.037814e-03 -6.318811e-02 3.753689e-02 2.200052e-02 3.213781e-02 -4.616317e-03
<VARIANCE> 39
 6.749798e+01 3.533121e+01 1.259681e+02 4.756113e+01 6.853752e+01 1.722008e+02 9.302808e+01 5.332917e+01 4.317289e+01 6.106380e+01 4.351121e+01 2.457882e+01 7.298622e+01 5.246334e+00 3.807142e+00 3.698652e+00 3.711388e+00 5.012582e+00 1.101653e+01 3.911172e+00 4.633503e+00 3.886743e+00 4.438049e+00 2.543136e+00 1.926529e+00 3.434082e+00 7.945360e-01 5.185546e-01 3.384002e-01 6.133240e-01 6.836960e-01 1.669999e+00 4.690477e-01 8.747734e-01 6.074345e-01 8.024554e-01 5.016483e-01 3.851031e-01 4.525422e-01
<GCONST> 1.369999e+02
<STATE> 4
<MEAN> 39
 7.480947e+00 2.116557e+00 -4.056033e+00 1.064604e+01 -3.488911e+00 -1.285182e+01 -3.510156e+00 1.024197e+01 -1.533822e+01 -8.129434e+00 -6.783879e+00 1.985206e-01 6.632575e+01 -1.892785e-01 5.108089e-01 -1.436119e-01 2.851550e-01 1.689612e-01 1.077300e+00 5.373507e-01 -4.714339e-01 -3.022592e-01 5.445126e-01 2.424615e-01 -2.852606e-01 -6.648293e-01 -1.106721e-01 1.617795e-01 8.949697e-02 -3.135462e-02 1.310276e-02 1.037609e-01 -1.392820e-01 -5.332128e-03 2.141451e-01 -2.385829e-02 -7.695620e-02 -4.804848e-02 -8.494931e-02
<VARIANCE> 39
 4.738050e+00 5.404795e+01 3.048712e+01 2.206617e+01 2.787355e+01 8.094633e+01 5.570546e+01 5.782654e+01 5.050969e+01 3.264623e+01 2.729471e+01 2.781722e+01 2.646421e+01 4.044786e-01 2.107734e+00 1.369285e+00 1.283683e+00 1.362066e+00 1.317469e+00 2.451472e+00 1.545052e+00 4.621602e+00 1.500871e+00 1.865065e+00 1.731210e+00 8.699190e-01 1.050613e-01 2.664792e-01 2.070387e-01 2.209139e-01 2.422729e-01 3.264429e-01 3.373699e-01 2.870313e-01 5.321413e-01 3.178201e-01 3.081189e-01 3.399659e-01 1.095769e-01
<GCONST> 1.043627e+02
<STATE> 5
<MEAN> 39
 -7.232378e+00 1.136167e+01 -1.711164e+00 1.201320e+01 2.833918e+00 3.237279e+00 -5.089284e+00 6.154664e+00 -4.099693e+00 -1.115052e+00 -8.179534e+00 -9.959692e-02 4.993042e+01 -6.009854e-01 -7.517458e-03 7.663815e-02 -4.375861e-02 1.396304e-01 1.808066e-01 -1.462750e-01 2.036492e-02 3.959199e-01 2.326878e-01 -1.293285e-02 8.191263e-02 -4.351571e-01 1.745198e-02 -3.505228e-02 -7.240858e-03 1.946286e-03 -3.640275e-02 -3.789319e-02 2.098170e-02 7.400111e-03 -3.234087e-02 -4.267083e-03 2.520703e-02 2.665870e-04 2.827477e-02
<VARIANCE> 39
 5.192566e+01 1.718529e+01 2.480702e+01 2.594855e+01 2.480289e+01 3.325981e+01 3.197975e+01 2.056892e+01 4.101156e+01 2.079292e+01 3.130984e+01 1.037535e+01 2.487157e+01 2.981307e-01 4.869588e-01 6.836159e-01 1.203195e+00 1.133770e+00 1.224677e+00 1.791640e+00 1.408034e+00 1.465763e+00 9.698871e-01 1.503275e+00 7.910354e-01 1.729182e-01 3.485848e-02 5.975101e-02 8.668338e-02 2.216278e-01 1.966273e-01 2.103775e-01 3.228078e-01 2.452391e-01 2.686539e-01 1.856657e-01 3.011145e-01 1.565000e-01 1.478959e-02
<GCONST> 8.567182e+01
<TRANSP> 6
 0.000000e+00 1.000000e+00 0.000000e+00 0.000000e+00 0.000000e+00 0.000000e+00
 0.000000e+00 9.611651e-01 3.883496e-02 0.000000e+00 0.000000e+00 0.000000e+00
 0.000000e+00 0.000000e+00 9.663866e-01 3.361344e-02 0.000000e+00 0.000000e+00
 0.000000e+00 0.000000e+00 0.000000e+00 9.396985e-01 6.030151e-02 0.000000e+00
 0.000000e+00 0.000000e+00 0.000000e+00 0.000000e+00 9.641791e-01 3.582090e-02
 0.000000e+00 0.000000e+00 0.000000e+00 0.000000e+00 0.000000e+00 0.000000e+00
<ENDHMM>
