~o
<STREAMINFO> 1 39
<VECSIZE> 39<NULLD><MFCC_D_A_0><DIAGC>
~h "close"
<BEGINHMM>
<NUMSTATES> 6
<STATE> 2
<MEAN> 39
 -7.557130e+00 1.429594e+00 -8.225238e+00 4.224927e+00 -4.458547e+00 6.127733e+00 -1.903271e+00 7.818560e+00 -3.634077e-01 1.473061e+00 -5.239449e+00 -2.349644e+00 5.279823e+01 -1.050358e-02 -1.435281e-02 -3.476049e-03 1.993512e-03 3.155798e-03 -2.435583e-02 -1.707970e-03 -1.221292e-02 1.686007e-02 1.113707e-02 -4.665183e-03 -1.957741e-02 3.985907e-03 -1.111965e-02 3.390067e-04 1.965637e-02 -6.548427e-03 3.097796e-02 6.439672e-03 3.543470e-03 1.124185e-03 -3.112904e-03 1.052951e-02 2.182910e-02 1.335690e-02 1.013204e-02
<VARIANCE> 39
 1.038324e+00 1.510135e+00 2.268185e+00 4.714930e+00 6.023118e+00 6.965808e+00 5.914444e+00 5.874937e+00 7.241023e+00 6.194674e+00 6.193564e+00 6.046837e+00 1.016634e+00 7.872345e-02 1.291549e-01 2.393772e-01 3.992100e-01 5.599228e-01 6.377313e-01 6.541080e-01 6.500576e-01 7.328390e-01 6.561689e-01 6.473066e-01 5.713343e-01 2.097528e-02 1.811272e-02 2.580562e-02 4.959761e-02 8.107037e-02 1.183342e-01 1.284620e-01 1.288835e-01 1.350509e-01 1.527045e-01 1.323379e-01 1.266284e-01 1.021348e-01 1.000000e-02
<GCONST> 4.053499e+01
<STATE> 3
<MEAN> 39
 2.301307e+00 3.990491e+00 -5.122558e+00 3.015675e+00 1.042160e-01 -1.396896e+01 -6.143639e+00 1.372718e+01 -4.065052e+00 1.050653e+00 -7.152826e+00 2.072804e+00 6.461134e+01 3.211762e-01 2.799301e-01 2.909218e-01 -6.113392e-02 -1.920209e-02 -3.988007e-01 -1.499399e-01 9.249754e-02 1.338922e-02 4.701690e-02 -1.031749e-02 -1.528759e-02 2.902169e-01 -5.693679e-02 -2.514014e-02 6.053585e-02 -6.341792e-02 3.337761e-02 1.903861e-02 -1.128806e-02 -8.314703e-02 3.134275e-03 -1.016326e-02 5.114527e-02 4.429653e-02 3.618655e-02
<VARIANCE> 39
 9.939945e+01 3.344555e+01 3.537105e+01 1.903645e+01 6.053361e+01 1.841595e+02 2.420071e+01 7.057328e+01 3.595454e+01 2.842442e+01 1.899421e+01 4.102062e+01 4.973758e+01 2.255654e+00 2.495008e+00 2.186363e+00 1.817400e+00 3.393167e+00 4.160555e+00 1.911090e+00 3.982517e+00 2.960407e+00 2.464881e+00 1.223368e+00 2.345671e+00 1.448297e+00 2.573849e-01 4.670117e-01 3.352067e-01 3.655893e-01 4.467447e-01 4.260667e-01 3.528224e-01 8.571332e-01 5.925591e-01 4.363004e-01 2.956355e-01 4.107830e-01 1.925545e-01
<GCONST> 1.195703e+02
<STATE> 4
<MEAN> 39
 -2.085195e+00 3.058792e+00 5.089810e-01 1.961005e+00 2.680961e+00 -1.027763e+01 -8.035082e+00 5.949541e+00 -2.667178e+00 5.299568e-01 4.059861e-01 2.575882e+00 6.730341e+01 -3.734369e-01 -6.115269e-02 8.245661e-01 -5.088732e-01 1.501217e-01 -5.622785e-01 4.179877e-01 -2.173425e-01 -4.926094e-02 -7.389536e-02 1.656139e-01 -5.028350e-03 7.293050e-01 1.974884e-02 2.113072e-02 -9.897016e-02 1.391411e-01 -1.362333e-01 7.518028e-03 5.170781e-02 7.685617e-02 2.059868e-03 -2.988642e-02 -6.280015e-02 -1.025876e-01 -5.957058e-02
<VARIANCE> 39
 1.200446e+02 6.047044e+01 1.352520e+02 6.332484e+01 5.614302e+01 8.530898e+01 5.170203e+01 1.250179e+02 5.178132e+01 6.274315e+01 7.818905e+01 5.522141e+01 2.756084e+01 6.858222e+00 2.929848e+00 5.321237e+00 4.579761e+00 2.764872e+00 4.364611e+00 4.319793e+00 6.688648e+00 3.847672e+00 3.548428e+00 4.624185e+00 3.689412e+00 2.291557e+00 5.752380e-01 5.494733e-01 6.502963e-01 7.418132e-01 3.758018e-01 6.929017e-01 5.877320e-01 9.113278e-01 6.825154e-01 5.169472e-01 5.960026e-01 4.905039e-01 3.126335e-01
<GCONST> 1.376866e+02
<STATE> 5
<MEAN> 39
 -1.341792e+01 2.175745e+00 1.084114e+01 -2.524404e+00 -4.941802e+00 -2.754107e+00 4.755074e+00 5.007352e+00 -1.549427e-01 2.471804e-01 -1.144012e+00 -2.822209e+00 6.494133e+01 3.698940e-02 -1.351741e-01 -3.921039e-01 2.672844e-01 -1.588998e-01 4.447892e-01 -6.618150e-02 1.559634e-01 -3.774792e-02 -3.439559e-02 -6.660301e-02 1.550118e-02 -4.627101e-01 4.363079e-02 4.569301e-03 1.100162e-02 -3.967177e-02 2.655863e-02 7.130540e-03 -1.165784e-02 1.844743e-02 -6.089617e-03 3.246283e-02 -1.740968e-02 1.827065e-02 -1.689316e-02
<VARIANCE> 39
 1.872322e+02 3.067041e+01 1.809437e+02 3.331987e+01 1.977774e+01 1.224143e+02 9.446098e+01 5.133522e+01 1.546307e+01 1.795450e+01 3.509417e+01 1.291239e+01 4.672498e+01 6.985965e-01 5.395067e-01 9.966432e-01 7.713197e-01 1.107873e+00 1.297024e+00 1.335493e+00 1.043450e+00 1.129223e+00 1.164600e+00 1.165223e+00 8.588697e-01 1.561824e-01 4.817099e-02 5.648758e-02 9.116954e-02 1.079249e-01 1.358304e-01 2.152548e-01 1.766165e-01 2.300583e-01 2.221403e-01 1.910464e-01 1.985436e-01 1.849952e-01 1.970075e-02
<GCONST> 9.112153e+01
<TRANSP> 6
 0.000000e+00 1.000000e+00 0.000000e+00 0.000000e+00 0.000000e+00 0.000000e+00
 0.000000e+00 9.732143e-01 2.678571e-02 0.000000e+00 0.000000e+00 0.000000e+00
 0.000000e+00 0.000000e+00 9.525692e-01 4.743083e-02 0.000000e+00 0.000000e+00
 0.000000e+00 0.000000e+00 0.000000e+00 9.444444e-01 5.555555e-02 0.000000e+00
 0.000000e+00 0.000000e+00 0.000000e+00 0.000000e+00 9.510204e-01 4.897960e-02
 0.000000e+00 0.000000e+00 0.000000e+00 0.000000e+00 0.000000e+00 0.000000e+00
<ENDHMM>
