~o
<STREAMINFO> 1 39
<VECSIZE> 39<NULLD><MFCC_D_A_0><DIAGC>
~h "sil"
<BEGINHMM>
<NUMSTATES> 6
<STATE> 2
<MEAN> 39
 -7.037321e+00 2.508130e+00 -7.375851e+00 5.179744e+00 -4.107100e+00 5.815483e+00 -2.553786e+00 6.542325e+00 -1.192333e+00 1.884271e+00 -4.328418e+00 -2.046108e+00 5.282231e+01 1.151970e-02 -1.687579e-02 4.552732e-02 -6.324281e-03 -1.746209e-02 -5.042901e-02 2.238116e-02 8.201876e-02 7.973579e-02 -8.521618e-02 -1.460188e-01 -5.067633e-02 1.042667e-02 -1.517950e-02 -1.509618e-02 -1.862236e-02 -3.844880e-02 -5.907166e-02 -1.207383e-02 1.059831e-02 3.123710e-02 5.578465e-02 9.742380e-02 9.579786e-02 2.786817e-02 -4.678072e-03
<VARIANCE> 39
 8.674513e-01 1.416608e+00 1.650185e+00 3.645541e+00 6.530008e+00 5.376319e+00 4.824255e+00 5.876168e+00 5.384398e+00 7.782740e+00 6.617871e+00 3.909042e+00 2.478159e-01 1.535945e-01 1.638846e-01 1.822093e-01 4.406582e-01 9.806491e-01 5.410143e-01 4.821829e-01 3.897694e-01 4.273847e-01 1.028380e+00 1.074262e+00 5.035710e-01 3.050286e-02 3.431657e-02 3.267784e-02 3.671143e-02 9.998586e-02 2.536820e-01 1.078657e-01 8.635438e-02 4.114716e-02 5.156682e-02 9.385884e-02 1.607126e-01 1.178168e-01 1.000000e-02
<GCONST> 3.719624e+01
<STATE> 3
<MEAN> 39
 -7.357530e+00 1.573837e+00 -7.851782e+00 3.904229e+00 -5.109994e+00 4.882473e+00 -2.996397e+00 8.072504e+00 6.091357e-01 2.376021e+00 -5.008375e+00 -2.844566e+00 5.282137e+01 -1.427659e-02 3.594184e-03 -1.936457e-02 -2.192887e-02 -3.061858e-02 -1.111511e-01 -1.897047e-01 -1.467342e-01 -1.561694e-01 -1.897750e-01 -7.884986e-02 -2.232550e-03 3.952092e-03 4.759235e-04 -5.076834e-03 -1.510787e-04 7.367832e-03 -4.918416e-03 5.309650e-02 3.259247e-02 -2.729766e-02 -6.564634e-02 -6.221313e-02 -5.985948e-02 -6.675566e-02 -6.115626e-04
<VARIANCE> 39
 4.529471e-01 7.649337e-01 3.722088e+00 3.700121e+00 3.925986e+00 2.516359e+00 5.587216e+00 5.130935e+00 6.617955e+00 6.125279e+00 6.244721e+00 5.306955e+00 1.138161e-01 6.388089e-02 1.086224e-01 5.872506e-01 6.030987e-01 7.952506e-01 3.252618e-01 8.097124e-01 6.830626e-01 8.624725e-01 7.740392e-01 7.730887e-01 8.012916e-01 1.869062e-02 1.448913e-02 2.560640e-02 1.226723e-01 1.266512e-01 1.757381e-01 5.941290e-02 1.912508e-01 1.401539e-01 1.335892e-01 1.200914e-01 1.443277e-01 1.476520e-01 1.000000e-02
<GCONST> 3.826889e+01
<STATE> 4
<MEAN> 39
 -7.648836e+00 8.541515e-01 -8.830051e+00 3.564821e+00 -5.375222e+00 5.634330e+00 -2.841500e+00 7.546658e+00 -4.516271e-01 1.914058e+00 -5.778574e+00 -3.218981e+00 5.273834e+01 3.763185e-02 -2.274010e-05 -1.824973e-02 -7.364685e-02 7.981972e-03 8.989280e-02 8.411591e-02 1.009527e-01 1.508783e-01 1.073302e-01 1.559064e-02 6.405805e-04 2.564368e-02 1.796244e-02 2.214005e-02 1.807228e-02 5.066981e-03 1.117488e-02 -8.249433e-02 -6.524912e-02 -2.339722e-02 5.400333e-02 5.492822e-02 3.041644e-02 9.247800e-03 8.628727e-03
<VARIANCE> 39
 6.321757e-01 1.159482e+00 2.184588e+00 2.696746e+00 6.424467e+00 7.299274e+00 5.982495e+00 4.962367e+00 7.991602e+00 4.958807e+00 4.159264e+00 5.063452e+00 1.925783e-01 6.870285e-02 2.027965e-01 2.502312e-01 4.977342e-01 8.635250e-01 7.730666e-01 8.116125e-01 8.902550e-01 1.018253e+00 6.076385e-01 3.607708e-01 7.123401e-01 1.814015e-02 1.185855e-02 3.840262e-02 4.874739e-02 8.850884e-02 1.573353e-01 1.127296e-01 1.559395e-01 2.602291e-01 2.563124e-01 1.734064e-01 8.565558e-02 1.922536e-01 1.000000e-02
<GCONST> 4.032253e+01
<STATE> 5
<MEAN> 39
 -7.253535e+00 1.245618e+00 -8.464458e+00 3.729976e+00 -4.447787e+00 5.768159e+00 -3.244800e+00 6.503545e+00 -7.714866e-01 1.231352e+00 -5.671480e+00 -3.171179e+00 5.296767e+01 -2.719565e-02 -1.712178e-02 -3.028115e-02 5.195763e-02 2.861584e-02 -7.062939e-02 1.081272e-02 -8.183569e-03 -7.068256e-02 -4.533729e-02 4.571456e-03 1.376678e-01 -2.889745e-02 -1.008132e-02 -7.936221e-03 7.914645e-03 2.309988e-02 4.817270e-02 7.905646e-02 5.676528e-02 5.466465e-02 3.261109e-02 2.081015e-02 1.743826e-02 4.911097e-02 -4.905124e-03
<VARIANCE> 39
 8.542626e-01 1.369695e+00 2.564126e+00 4.069296e+00 3.491745e+00 3.317199e+00 3.447950e+00 3.013261e+00 6.072250e+00 5.499071e+00 6.173339e+00 4.426270e+00 2.041047e-01 6.385993e-02 9.284744e-02 3.786578e-01 4.384412e-01 3.263098e-01 2.743440e-01 4.675866e-01 6.801024e-01 1.106657e+00 6.792037e-01 7.191128e-01 6.037592e-01 1.000000e-02 1.000000e-02 1.117188e-02 8.794130e-02 1.023646e-01 8.369004e-02 9.219682e-02 9.315678e-02 1.369148e-01 2.270506e-01 1.197805e-01 1.314878e-01 8.737522e-02 1.000000e-02
<GCONST> 3.227683e+01
<TRANSP> 6
 0.000000e+00 1.000000e+00 0.000000e+00 0.000000e+00 0.000000e+00 0.000000e+00
 0.000000e+00 9.583333e-01 4.166666e-02 0.000000e+00 0.000000e+00 0.000000e+00
 0.000000e+00 0.000000e+00 9.583333e-01 4.166666e-02 0.000000e+00 0.000000e+00
 0.000000e+00 0.000000e+00 0.000000e+00 9.583333e-01 4.166666e-02 0.000000e+00
 0.000000e+00 0.000000e+00 0.000000e+00 0.000000e+00 9.583333e-01 4.166666e-02
 0.000000e+00 0.000000e+00 0.000000e+00 0.000000e+00 0.000000e+00 0.000000e+00
<ENDHMM>
