~o
<STREAMINFO> 1 39
<VECSIZE> 39<NULLD><MFCC_D_A_0><DIAGC>
~h "sil"
<BEGINHMM>
<NUMSTATES> 6
<STATE> 2
<MEAN> 39
 -7.630125e+00 2.324137e+00 -8.200972e+00 5.704166e+00 -2.710376e+00 7.161326e+00 -1.513009e+00 6.381852e+00 -1.889150e+00 3.311007e+00 -2.509044e+00 -1.187450e+00 5.237372e+01 3.157748e-01 3.700712e-01 3.123053e-01 5.004604e-02 1.496459e-02 -4.300501e-01 -6.522452e-01 -7.362186e-01 -1.042050e+00 -1.794061e+00 -1.590096e+00 1.940266e-02 9.759026e-02 1.003067e-02 2.252404e-02 1.183430e-01 2.522188e-02 -6.440616e-02 8.353785e-02 5.051054e-02 2.839984e-02 1.112471e-01 1.738918e-01 6.765620e-02 -1.676589e-01 2.401553e-02
<VARIANCE> 39
 9.250965e-01 8.370476e-01 1.127175e+00 7.898588e-01 4.960098e-01 1.611818e+00 1.298388e+00 2.436467e+00 2.453564e+00 8.044288e+00 5.639765e+00 2.919191e+00 7.488672e-01 1.480444e-02 2.282473e-02 1.014052e-01 1.332054e-02 1.154277e-01 2.452675e-02 3.449842e-02 6.030503e-02 6.456369e-02 4.357127e-02 1.489485e-01 3.184637e-01 8.543504e-03 2.030187e-03 8.970141e-03 1.593402e-02 2.236085e-03 1.004384e-02 2.314741e-02 3.201768e-02 3.860599e-02 4.172748e-02 1.698739e-02 4.492533e-02 1.671065e-02 8.926545e-04
<GCONST> -2.028485e+01
<STATE> 3
<MEAN> 39
 -6.496650e+00 3.459247e+00 -6.720268e+00 5.935045e+00 -2.197642e+00 7.608281e+00 -2.427073e+00 4.843073e+00 -3.994993e+00 -1.922185e+00 -7.327174e+00 -2.800596e+00 5.308771e+01 -1.005521e-01 -1.409508e-01 1.692356e-01 1.962622e-01 3.448283e-01 1.868342e-01 2.220243e-01 -3.858620e-02 2.497142e-01 -1.744667e-01 3.446984e-01 4.146464e-01 8.284435e-02 -6.018377e-02 -8.998142e-02 -6.481083e-02 -8.408967e-02 -2.915925e-01 -1.913084e-01 -1.831759e-02 8.464418e-02 2.812729e-01 4.749173e-01 4.527199e-01 1.951007e-01 -1.204457e-02
<VARIANCE> 39
 9.250965e-01 5.341014e-01 9.407276e-01 5.431371e-01 3.287735e+00 5.673299e+00 2.127020e+00 4.189627e-01 1.516619e+00 1.068714e+00 2.992873e+00 4.544552e+00 7.488672e-01 1.001170e-01 1.007392e-01 2.245042e-02 8.044565e-02 2.644429e-01 1.868372e-01 4.448378e-02 1.815130e-01 1.542201e-01 5.355448e-01 4.720253e-01 6.479093e-01 1.300916e-02 2.869955e-02 2.745905e-02 4.236661e-03 5.141498e-02 2.782620e-01 1.371674e-01 6.833847e-02 3.310838e-03 1.310216e-02 2.722184e-03 9.045637e-02 9.744515e-02 1.408780e-03
<GCONST> 3.796911e-01
<STATE> 4
<MEAN> 39
 -6.372822e+00 3.350844e+00 -6.847984e+00 4.642921e+00 -5.892871e+00 3.552572e+00 -4.223795e+00 5.655641e+00 -1.468320e+00 1.228283e+00 -4.108805e+00 -1.020611e+00 5.325257e+01 -5.613039e-02 -1.108263e-01 -2.485549e-01 -3.746546e-01 -4.450088e-01 -4.162673e-01 -3.526087e-01 4.338200e-01 2.797968e-01 6.531231e-01 3.484797e-01 -2.293335e-02 -7.708936e-02 -8.321479e-02 -8.268840e-02 -7.166271e-02 -5.538587e-04 1.711046e-01 1.952036e-01 1.400355e-01 7.273313e-02 -6.264458e-02 -1.335879e-02 -3.844412e-02 -8.350269e-02 -4.895979e-02
<VARIANCE> 39
 9.250965e-01 4.193250e-01 9.407276e-01 5.050953e+00 7.423216e+00 1.985433e+00 3.261166e+00 8.498508e+00 5.767378e+00 1.697954e+00 1.821554e+00 1.791446e+00 7.488672e-01 2.018349e-01 2.422055e-01 8.935854e-02 6.825326e-01 2.364948e+00 9.242913e-01 1.554370e-01 1.954526e-01 3.992767e-01 1.006324e-01 2.480864e-01 2.853630e-01 4.941076e-02 2.856877e-02 3.334555e-02 7.478930e-03 1.535467e-01 4.321242e-01 9.860150e-02 5.042971e-02 2.047601e-02 7.232752e-02 2.575988e-02 6.650691e-02 1.104851e-01 4.901235e-03
<GCONST> 2.380499e+01
<STATE> 5
<MEAN> 39
 -7.432302e+00 1.256447e+00 -8.307538e+00 3.876953e+00 -4.889880e+00 5.511904e+00 -2.888256e+00 7.450266e+00 -1.177366e-01 2.019550e+00 -5.318244e+00 -3.057328e+00 5.281208e+01 -3.502162e-03 -1.075217e-02 -8.927379e-03 5.416413e-03 1.728763e-02 5.816418e-03 3.026744e-02 9.083590e-03 1.606241e-02 -2.234204e-02 -2.926816e-02 5.850969e-03 1.047979e-03 7.646617e-03 8.708487e-03 5.686838e-03 2.091481e-03 1.417836e-03 -4.111922e-04 -3.408054e-03 -1.436334e-03 8.771573e-03 1.988298e-03 2.452319e-03 1.163038e-02 3.175921e-03
<VARIANCE> 39
 9.250965e-01 1.158873e+00 2.984972e+00 3.792557e+00 4.852020e+00 4.438317e+00 5.244995e+00 4.706112e+00 6.632259e+00 5.949483e+00 5.992032e+00 4.812624e+00 7.488672e-01 7.583373e-02 1.325620e-01 3.899343e-01 5.116250e-01 6.329343e-01 4.598118e-01 7.223131e-01 7.225625e-01 9.200848e-01 6.970766e-01 6.813847e-01 7.019902e-01 1.616004e-02 1.593978e-02 2.642499e-02 8.492590e-02 1.080558e-01 1.418995e-01 9.314695e-02 1.474615e-01 1.682784e-01 1.875660e-01 1.394164e-01 1.359525e-01 1.446102e-01 3.220657e-03
<GCONST> 3.999642e+01
<TRANSP> 6
 0.000000e+00 1.000000e+00 0.000000e+00 0.000000e+00 0.000000e+00 0.000000e+00
 0.000000e+00 7.500000e-01 2.500000e-01 0.000000e+00 0.000000e+00 0.000000e+00
 0.000000e+00 0.000000e+00 7.500000e-01 2.500000e-01 0.000000e+00 0.000000e+00
 0.000000e+00 0.000000e+00 0.000000e+00 8.571427e-01 1.428573e-01 0.000000e+00
 0.000000e+00 0.000000e+00 0.000000e+00 0.000000e+00 9.876543e-01 1.234568e-02
 0.000000e+00 0.000000e+00 0.000000e+00 0.000000e+00 0.000000e+00 0.000000e+00
<ENDHMM>
