~o
<STREAMINFO> 1 39
<VECSIZE> 39<NULLD><MFCC_D_A_0><DIAGC>
~h "close"
<BEGINHMM>
<NUMSTATES> 6
<STATE> 2
<MEAN> 39
 -7.447748e+00 1.327641e+00 -8.221240e+00 4.098614e+00 -4.534001e+00 5.996830e+00 -1.939362e+00 7.793861e+00 -3.906803e-01 1.463983e+00 -5.269889e+00 -2.345748e+00 5.296919e+01 -4.283875e-03 -7.111485e-03 -4.067097e-03 5.004623e-03 -1.040646e-03 -2.383739e-02 -1.014562e-02 -1.426733e-02 2.400083e-02 6.403224e-03 -2.407128e-02 -2.906817e-02 1.751544e-03 -9.780853e-03 -3.343238e-03 8.233250e-03 -8.734447e-04 1.477526e-02 1.026491e-02 2.336408e-03 3.094331e-03 -9.109176e-04 1.380504e-02 1.778079e-02 5.802365e-03 1.754268e-03
<VARIANCE> 39
 9.250965e-01 1.180282e+00 2.281833e+00 4.180826e+00 5.798064e+00 6.350188e+00 5.974538e+00 5.781384e+00 7.281893e+00 6.255885e+00 6.217103e+00 6.130169e+00 7.488672e-01 7.545986e-02 1.254680e-01 2.320327e-01 3.878566e-01 5.383399e-01 6.418837e-01 6.685486e-01 6.458979e-01 7.342760e-01 6.601840e-01 6.341902e-01 5.464600e-01 1.945712e-02 1.571382e-02 2.472861e-02 4.667573e-02 7.215667e-02 1.101451e-01 1.248082e-01 1.313903e-01 1.343523e-01 1.475817e-01 1.296536e-01 1.240788e-01 1.003363e-01 4.740142e-03
<GCONST> 3.808115e+01
<STATE> 3
<MEAN> 39
 -9.297377e+00 2.491038e+00 -7.161150e+00 5.131906e+00 -1.691515e+00 7.346933e+00 -1.025149e+00 7.916419e+00 1.511233e-01 2.074425e+00 -3.764165e+00 -1.534496e+00 5.183194e+01 -6.841280e-01 -1.582687e-01 7.507964e-01 -1.009957e+00 1.475824e+00 -6.589105e-01 -6.533161e-02 -6.903170e-01 -3.016733e-01 -2.465200e-01 7.378156e-01 7.862883e-01 9.291645e-01 -1.885464e-01 -1.186121e-01 3.047865e-01 -2.616054e-01 3.615060e-01 -4.204474e-01 -1.853342e-01 -4.332654e-01 -2.760724e-01 -2.681312e-01 1.418784e-01 3.612291e-01 4.189924e-01
<VARIANCE> 39
 3.455467e+00 4.559349e+00 4.762228e+00 1.320151e+01 1.896528e+01 1.242083e+01 5.819973e+00 7.931451e+00 7.549311e+00 7.354198e+00 9.276787e+00 6.752078e+00 8.447309e+00 1.251204e+00 4.230599e-01 1.422609e+00 1.777160e+00 2.824439e+00 2.108891e+00 1.209247e+00 2.620917e+00 2.047899e+00 1.676925e+00 2.044413e+00 1.498218e+00 9.867113e-01 1.750398e-01 8.696316e-02 2.199895e-01 2.927784e-01 2.881452e-01 3.191799e-01 2.626222e-01 5.026284e-01 4.446966e-01 3.054640e-01 5.160778e-01 2.380999e-01 1.019162e-01
<GCONST> 8.601138e+01
<STATE> 4
<MEAN> 39
 -6.275807e+00 -1.395951e+00 -1.618097e+00 3.564501e+00 4.741796e+00 -7.663185e+00 -8.780050e+00 3.408080e+00 -4.150496e+00 -4.644453e+00 -5.813625e-01 7.129178e+00 6.489066e+01 1.479615e+00 9.380274e-02 -4.186487e-01 4.431055e-01 7.652164e-02 -1.566140e+00 -6.792662e-01 6.452169e-01 -1.662923e-01 1.954933e-01 -1.543697e-01 1.566595e-01 1.044011e+00 1.294086e-01 2.389021e-02 -2.114362e-01 2.800821e-02 -8.569138e-02 7.272126e-02 1.255998e-01 2.960238e-01 6.454633e-02 1.877016e-01 -9.885719e-02 -1.659194e-01 -9.017465e-02
<VARIANCE> 39
 1.095931e+02 4.452449e+01 3.820949e+01 4.757921e+01 4.213350e+01 6.193116e+01 4.492306e+01 7.467805e+01 4.959828e+01 4.395826e+01 6.763708e+01 3.726741e+01 2.705639e+01 4.449708e+00 5.557340e+00 3.629362e+00 2.887556e+00 3.377179e+00 3.753929e+00 3.341297e+00 7.696023e+00 5.129656e+00 5.016946e+00 4.196451e+00 5.044197e+00 2.336530e+00 6.446806e-01 1.116719e+00 4.550261e-01 6.107728e-01 6.457500e-01 7.601539e-01 6.048961e-01 1.362803e+00 9.964094e-01 6.699336e-01 6.282300e-01 7.017130e-01 3.823955e-01
<GCONST> 1.362729e+02
<STATE> 5
<MEAN> 39
 -3.404326e+00 4.702205e+00 4.015215e+00 -4.350518e-01 -2.741429e+00 -1.074009e+01 -1.165354e+00 1.013254e+01 -1.869769e+00 2.273208e+00 -3.522501e+00 -1.568083e+00 6.677758e+01 -4.049129e-01 2.994559e-02 3.588624e-01 -1.459936e-01 -2.304001e-01 3.892003e-01 3.188348e-01 -1.027822e-01 5.637596e-02 -5.605517e-02 9.775631e-03 -1.472731e-01 -2.362129e-01 -2.095701e-02 8.547127e-03 3.764043e-02 2.675601e-02 -2.992911e-02 4.137332e-02 -7.480478e-03 -4.793963e-02 1.016584e-02 -3.475809e-02 1.052603e-02 5.277868e-03 -2.997929e-02
<VARIANCE> 39
 2.161392e+02 3.359015e+01 2.011037e+02 3.909424e+01 4.782027e+01 1.758358e+02 9.484740e+01 9.929673e+01 3.240694e+01 2.217161e+01 4.951666e+01 2.647820e+01 3.767328e+01 1.905646e+00 8.864059e-01 2.630523e+00 2.015046e+00 1.671666e+00 2.359537e+00 2.029041e+00 2.299179e+00 1.702164e+00 1.423083e+00 1.464852e+00 1.220239e+00 7.144667e-01 1.540610e-01 1.084064e-01 2.933413e-01 3.239553e-01 1.988207e-01 3.020541e-01 2.728923e-01 3.658677e-01 3.053490e-01 2.556652e-01 2.285487e-01 2.253894e-01 7.695622e-02
<GCONST> 1.117000e+02
<TRANSP> 6
 0.000000e+00 8.333493e-01 1.666507e-01 0.000000e+00 0.000000e+00 0.000000e+00
 0.000000e+00 9.765247e-01 2.347528e-02 0.000000e+00 0.000000e+00 0.000000e+00
 0.000000e+00 0.000000e+00 8.096529e-01 1.903471e-01 0.000000e+00 0.000000e+00
 0.000000e+00 0.000000e+00 0.000000e+00 9.298575e-01 7.014253e-02 0.000000e+00
 0.000000e+00 0.000000e+00 0.000000e+00 0.000000e+00 9.760903e-01 2.390970e-02
 0.000000e+00 0.000000e+00 0.000000e+00 0.000000e+00 0.000000e+00 0.000000e+00
<ENDHMM>
