~o
<STREAMINFO> 1 39
<VECSIZE> 39<NULLD><MFCC_D_A_0><DIAGC>
~h "open"
<BEGINHMM>
<NUMSTATES> 6
<STATE> 2
<MEAN> 39
 -1.781784e+01 3.531162e+00 -7.344110e+00 8.524534e+00 2.322744e+00 3.807898e+00 -4.771735e+00 7.927163e+00 9.120495e-01 3.240902e+00 -6.558985e+00 1.505591e+00 4.416481e+01 -2.118697e-01 -2.051121e-01 -1.263548e-01 -1.257062e-01 -5.345090e-02 1.369509e-03 4.886040e-02 2.843555e-02 6.784616e-02 5.427920e-02 2.348968e-02 -1.975537e-02 -8.412857e-02 3.045026e-02 2.720824e-02 4.354802e-03 -1.766882e-02 -2.535481e-02 -8.106117e-03 -3.555815e-03 -2.388481e-02 -4.032813e-02 -4.338126e-03 1.066848e-02 -1.079158e-03 1.018112e-02
<VARIANCE> 39
 9.630149e+00 1.085744e+01 1.384819e+01 2.016866e+01 2.329060e+01 1.579292e+01 1.853627e+01 1.299592e+01 2.944945e+01 1.442775e+01 1.986935e+01 9.072511e+00 4.561693e+00 1.472324e-01 3.777627e-01 2.677938e-01 5.232753e-01 6.989572e-01 1.043924e+00 1.004781e+00 7.905450e-01 1.238702e+00 8.615199e-01 1.070404e+00 7.621329e-01 6.804184e-02 1.862162e-02 6.225453e-02 4.789541e-02 7.563420e-02 1.203333e-01 1.875763e-01 1.612313e-01 1.462350e-01 2.198896e-01 1.390427e-01 1.644893e-01 1.247865e-01 8.935662e-03
<GCONST> 6.587865e+01
<STATE> 3
<MEAN> 39
 -8.705646e+00 8.252742e+00 -5.081875e+00 7.848605e+00 4.807219e-01 1.642740e+00 -4.747712e+00 6.722159e+00 -4.090406e-01 3.572548e+00 -5.156190e+00 4.625705e-01 5.022493e+01 1.242470e+00 4.135387e-01 2.163458e-01 -4.646097e-02 -8.155097e-01 -1.182072e+00 -2.031306e-01 4.054902e-01 -5.851404e-02 -5.702065e-01 -2.275723e-01 -1.667219e-01 8.302222e-01 2.975628e-01 -1.206550e-02 1.196217e-01 1.132233e-01 -2.805514e-01 -4.940537e-01 -9.014284e-02 2.570636e-01 9.913456e-02 -2.075941e-01 -4.547133e-02 5.206905e-02 2.597761e-01
<VARIANCE> 39
 5.071925e+01 2.967341e+01 8.874878e+01 5.132886e+01 2.747574e+01 2.807007e+01 4.218997e+01 2.604617e+01 3.417950e+01 1.742665e+01 3.046626e+01 1.355326e+01 2.211902e+01 6.184505e+00 1.640790e+00 2.529747e+00 2.248988e+00 4.670179e+00 8.887249e+00 3.297914e+00 3.217212e+00 2.336323e+00 2.898785e+00 1.826961e+00 1.527811e+00 3.037441e+00 7.465079e-01 3.350181e-01 2.740262e-01 3.309497e-01 5.539193e-01 1.033309e+00 6.091727e-01 5.766407e-01 4.043993e-01 4.089931e-01 3.377284e-01 3.143668e-01 3.747070e-01
<GCONST> 1.203569e+02
<STATE> 4
<MEAN> 39
 7.115270e+00 6.095284e+00 5.806468e+00 1.059860e+01 -1.096099e+01 -2.239865e+01 -1.644974e+01 1.665600e+01 -2.845823e-01 -1.036420e+01 -9.362300e+00 1.729260e+00 6.708078e+01 2.572099e-01 -4.467975e-01 -6.105777e-02 3.288030e-03 3.496484e-01 1.742925e-02 2.102022e-01 -1.144035e-01 -5.724975e-01 -2.339223e-01 -1.537115e-02 1.429171e-01 4.770447e-01 -1.603743e-01 3.777614e-03 -9.089447e-02 -3.084699e-02 1.590801e-01 2.957003e-01 1.109019e-01 -1.554508e-01 -1.001484e-01 1.552199e-01 6.591939e-02 -2.529140e-02 -1.563114e-01
<VARIANCE> 39
 1.376675e+01 4.807877e+01 5.760479e+01 3.196239e+01 5.859841e+01 7.465675e+01 6.592282e+01 4.407146e+01 7.636785e+01 3.703835e+01 4.501214e+01 3.091353e+01 2.453081e+01 2.652493e+00 3.872241e+00 3.079537e+00 3.100885e+00 3.158201e+00 7.660465e+00 4.081052e+00 4.020633e+00 4.595016e+00 4.082690e+00 2.753726e+00 2.010520e+00 2.645569e+00 4.847981e-01 5.576151e-01 2.858003e-01 5.568356e-01 5.182548e-01 1.212947e+00 3.954504e-01 7.204245e-01 6.403327e-01 7.366597e-01 5.287940e-01 4.172789e-01 2.997974e-01
<GCONST> 1.282864e+02
<STATE> 5
<MEAN> 39
 -3.402681e+00 8.486376e+00 -3.027094e+00 1.167116e+01 1.389645e+00 1.227390e-01 -3.590749e+00 6.259854e+00 -7.789314e+00 -2.685297e+00 -7.603080e+00 -1.035569e-01 5.419155e+01 -5.265122e-01 2.791715e-01 8.362921e-02 1.012933e-01 5.736280e-02 4.589354e-01 -7.202545e-02 -8.020300e-02 4.084342e-01 3.117701e-01 2.339084e-02 -7.486317e-02 -6.017241e-01 -2.206532e-03 3.974074e-04 2.663993e-02 -1.121604e-02 -1.048767e-02 -2.863163e-02 -4.773237e-02 2.593166e-02 4.951616e-02 -3.127635e-02 -3.240849e-02 3.101781e-03 1.326611e-02
<VARIANCE> 39
 7.833675e+01 4.496633e+01 2.711477e+01 2.445540e+01 2.918267e+01 5.964744e+01 3.486545e+01 2.424199e+01 7.557330e+01 2.996137e+01 2.970440e+01 1.233864e+01 7.299414e+01 3.124816e-01 7.781073e-01 8.020958e-01 1.272320e+00 1.133344e+00 1.370010e+00 1.753433e+00 1.338322e+00 1.815114e+00 1.054083e+00 1.516640e+00 9.840149e-01 2.690476e-01 3.956293e-02 7.393607e-02 1.138870e-01 2.140808e-01 1.984099e-01 2.042709e-01 3.336045e-01 2.265385e-01 3.234351e-01 1.969050e-01 2.828296e-01 1.744806e-01 2.040042e-02
<GCONST> 9.310609e+01
<TRANSP> 6
 0.000000e+00 9.166739e-01 8.332608e-02 0.000000e+00 0.000000e+00 0.000000e+00
 0.000000e+00 9.484838e-01 5.151626e-02 0.000000e+00 0.000000e+00 0.000000e+00
 0.000000e+00 0.000000e+00 9.323885e-01 6.761149e-02 0.000000e+00 0.000000e+00
 0.000000e+00 0.000000e+00 0.000000e+00 9.656416e-01 3.435836e-02 0.000000e+00
 0.000000e+00 0.000000e+00 0.000000e+00 0.000000e+00 9.738985e-01 2.610154e-02
 0.000000e+00 0.000000e+00 0.000000e+00 0.000000e+00 0.000000e+00 0.000000e+00
<ENDHMM>
