~o
<STREAMINFO> 1 39
<VECSIZE> 39<NULLD><MFCC_D_A_0><DIAGC>
~h "close"
<BEGINHMM>
<NUMSTATES> 6
<STATE> 2
<MEAN> 39
 -7.447756e+00 1.327646e+00 -8.221210e+00 4.098664e+00 -4.533967e+00 5.996853e+00 -1.939326e+00 7.793868e+00 -3.906849e-01 1.463990e+00 -5.269836e+00 -2.345722e+00 5.296918e+01 -4.284293e-03 -7.112025e-03 -4.067725e-03 5.005693e-03 -1.041219e-03 -2.383675e-02 -1.014505e-02 -1.426880e-02 2.400249e-02 6.403245e-03 -2.407468e-02 -2.906985e-02 1.751055e-03 -9.780508e-03 -3.342354e-03 8.233983e-03 -8.734810e-04 1.477599e-02 1.026503e-02 2.336084e-03 3.093890e-03 -9.125304e-04 1.380464e-02 1.778094e-02 5.802286e-03 1.754163e-03
<VARIANCE> 39
 9.250965e-01 1.180297e+00 2.281841e+00 4.180781e+00 5.798032e+00 6.350196e+00 5.974537e+00 5.781440e+00 7.281915e+00 6.255950e+00 6.217137e+00 6.130225e+00 7.488672e-01 7.546032e-02 1.254695e-01 2.320352e-01 3.878490e-01 5.383422e-01 6.418836e-01 6.685561e-01 6.459028e-01 7.342775e-01 6.601799e-01 6.341966e-01 5.464665e-01 1.945734e-02 1.571401e-02 2.472902e-02 4.667632e-02 7.215516e-02 1.101459e-01 1.248078e-01 1.313923e-01 1.343525e-01 1.475821e-01 1.296525e-01 1.240814e-01 1.003376e-01 4.740156e-03
<GCONST> 3.808131e+01
<STATE> 3
<MEAN> 39
 -9.297409e+00 2.491138e+00 -7.161163e+00 5.132102e+00 -1.691581e+00 7.347044e+00 -1.025096e+00 7.916413e+00 1.510528e-01 2.074369e+00 -3.764210e+00 -1.534511e+00 5.183171e+01 -6.840780e-01 -1.582522e-01 7.507886e-01 -1.009952e+00 1.475763e+00 -6.588804e-01 -6.532739e-02 -6.902853e-01 -3.015864e-01 -2.465230e-01 7.377863e-01 7.863048e-01 9.291320e-01 -1.885401e-01 -1.186052e-01 3.047991e-01 -2.616129e-01 3.614946e-01 -4.204261e-01 -1.853286e-01 -4.332668e-01 -2.760420e-01 -2.681263e-01 1.418733e-01 3.612299e-01 4.189881e-01
<VARIANCE> 39
 3.455362e+00 4.559138e+00 4.762240e+00 1.320162e+01 1.896481e+01 1.242076e+01 5.819724e+00 7.931242e+00 7.549300e+00 7.353851e+00 9.276534e+00 6.752227e+00 8.447299e+00 1.251201e+00 4.230723e-01 1.422622e+00 1.777159e+00 2.824465e+00 2.108778e+00 1.209252e+00 2.620956e+00 2.047744e+00 1.676935e+00 2.044399e+00 1.498310e+00 9.866778e-01 1.750388e-01 8.696587e-02 2.199880e-01 2.927674e-01 2.881417e-01 3.191544e-01 2.626182e-01 5.026302e-01 4.446975e-01 3.054542e-01 5.160802e-01 2.381151e-01 1.019162e-01
<GCONST> 8.601105e+01
<STATE> 4
<MEAN> 39
 -6.283570e+00 -1.397691e+00 -1.613722e+00 3.563763e+00 4.741350e+00 -7.656309e+00 -8.779786e+00 3.401400e+00 -4.149803e+00 -4.648210e+00 -5.786455e-01 7.130598e+00 6.488676e+01 1.480237e+00 9.432192e-02 -4.183314e-01 4.436260e-01 7.588309e-02 -1.566305e+00 -6.800975e-01 6.446890e-01 -1.656732e-01 1.950793e-01 -1.542040e-01 1.568374e-01 1.044098e+00 1.296390e-01 2.374097e-02 -2.117622e-01 2.812923e-02 -8.558142e-02 7.238481e-02 1.257675e-01 2.965266e-01 6.458246e-02 1.879949e-01 -9.880801e-02 -1.659771e-01 -9.000663e-02
<VARIANCE> 39
 1.095224e+02 4.453418e+01 3.819007e+01 4.759011e+01 4.214535e+01 6.186210e+01 4.493475e+01 7.460942e+01 4.961145e+01 4.394212e+01 6.763891e+01 3.725956e+01 2.703900e+01 4.451068e+00 5.558050e+00 3.630868e+00 2.886901e+00 3.377397e+00 3.754456e+00 3.341064e+00 7.698446e+00 5.130961e+00 5.017740e+00 4.197864e+00 5.046267e+00 2.337499e+00 6.448448e-01 1.117125e+00 4.550100e-01 6.109597e-01 6.457531e-01 7.601345e-01 6.050220e-01 1.362868e+00 9.966899e-01 6.699420e-01 6.283525e-01 7.018324e-01 3.825060e-01
<GCONST> 1.362745e+02
<STATE> 5
<MEAN> 39
 -3.402484e+00 4.701690e+00 4.013041e+00 -4.342260e-01 -2.740188e+00 -1.074154e+01 -1.166516e+00 1.013351e+01 -1.870120e+00 2.273317e+00 -3.522904e+00 -1.567216e+00 6.677837e+01 -4.048092e-01 2.977312e-02 3.586102e-01 -1.460691e-01 -2.301230e-01 3.889284e-01 3.189462e-01 -1.024788e-01 5.612385e-02 -5.586918e-02 9.697440e-03 -1.472801e-01 -2.360242e-01 -2.101091e-02 8.599293e-03 3.770686e-02 2.671537e-02 -2.997372e-02 4.149064e-02 -7.514192e-03 -4.805240e-02 1.015785e-02 -3.481986e-02 1.049228e-02 5.268653e-03 -3.004480e-02
<VARIANCE> 39
 2.161330e+02 3.358763e+01 2.011049e+02 3.909686e+01 4.782500e+01 1.758329e+02 9.484594e+01 9.929314e+01 3.240658e+01 2.217050e+01 4.951450e+01 2.648640e+01 3.767451e+01 1.905449e+00 8.868995e-01 2.630548e+00 2.015278e+00 1.672024e+00 2.360003e+00 2.029036e+00 2.299606e+00 1.702385e+00 1.423433e+00 1.464823e+00 1.220149e+00 7.146023e-01 1.540722e-01 1.084346e-01 2.933421e-01 3.239411e-01 1.988992e-01 3.021353e-01 2.729108e-01 3.659107e-01 3.053635e-01 2.556850e-01 2.285735e-01 2.254266e-01 7.697480e-02
<GCONST> 1.117036e+02
<TRANSP> 6
 0.000000e+00 8.333215e-01 1.666785e-01 0.000000e+00 0.000000e+00 0.000000e+00
 0.000000e+00 9.765246e-01 2.347542e-02 0.000000e+00 0.000000e+00 0.000000e+00
 0.000000e+00 0.000000e+00 8.096547e-01 1.903453e-01 0.000000e+00 0.000000e+00
 0.000000e+00 0.000000e+00 0.000000e+00 9.298232e-01 7.017686e-02 0.000000e+00
 0.000000e+00 0.000000e+00 0.000000e+00 0.000000e+00 9.760950e-01 2.390502e-02
 0.000000e+00 0.000000e+00 0.000000e+00 0.000000e+00 0.000000e+00 0.000000e+00
<ENDHMM>
