~o
<STREAMINFO> 1 39
<VECSIZE> 39<NULLD><MFCC_D_A_0><DIAGC>
~h "open"
<BEGINHMM>
<NUMSTATES> 6
<STATE> 2
<MEAN> 39
 -1.781774e+01 3.531149e+00 -7.344117e+00 8.524518e+00 2.322690e+00 3.807988e+00 -4.771750e+00 7.927131e+00 9.119363e-01 3.240844e+00 -6.558928e+00 1.505506e+00 4.416489e+01 -2.118877e-01 -2.051289e-01 -1.263711e-01 -1.257160e-01 -5.344710e-02 1.370628e-03 4.887333e-02 2.846615e-02 6.786614e-02 5.429370e-02 2.351255e-02 -1.972585e-02 -8.413102e-02 3.044991e-02 2.720713e-02 4.354569e-03 -1.766553e-02 -2.535406e-02 -8.107309e-03 -3.550583e-03 -2.388589e-02 -4.032634e-02 -4.338062e-03 1.067095e-02 -1.075199e-03 1.017990e-02
<VARIANCE> 39
 9.630188e+00 1.085744e+01 1.384824e+01 2.016910e+01 2.329121e+01 1.579309e+01 1.853633e+01 1.299629e+01 2.944933e+01 1.442774e+01 1.986967e+01 9.072354e+00 4.561767e+00 1.472298e-01 3.777804e-01 2.677934e-01 5.232623e-01 6.989319e-01 1.043893e+00 1.004748e+00 7.905445e-01 1.238639e+00 8.614771e-01 1.070414e+00 7.621067e-01 6.804288e-02 1.862212e-02 6.225652e-02 4.789403e-02 7.563040e-02 1.203264e-01 1.875641e-01 1.612239e-01 1.462384e-01 2.198894e-01 1.390395e-01 1.644936e-01 1.247839e-01 8.936158e-03
<GCONST> 6.587843e+01
<STATE> 3
<MEAN> 39
 -8.705979e+00 8.252495e+00 -5.081903e+00 7.848528e+00 4.806067e-01 1.643042e+00 -4.746860e+00 6.722552e+00 -4.090534e-01 3.572720e+00 -5.155766e+00 4.624813e-01 5.022479e+01 1.242466e+00 4.135478e-01 2.163863e-01 -4.644145e-02 -8.155035e-01 -1.182088e+00 -2.031514e-01 4.054725e-01 -5.848319e-02 -5.701833e-01 -2.275919e-01 -1.667456e-01 8.302171e-01 2.975706e-01 -1.206586e-02 1.196214e-01 1.132219e-01 -2.805477e-01 -4.940562e-01 -9.015168e-02 2.570602e-01 9.913968e-02 -2.075977e-01 -4.549104e-02 5.206018e-02 2.597852e-01
<VARIANCE> 39
 5.071857e+01 2.967208e+01 8.874683e+01 5.132860e+01 2.747728e+01 2.807100e+01 4.219162e+01 2.604443e+01 3.418189e+01 1.742631e+01 3.046585e+01 1.355183e+01 2.211845e+01 6.184566e+00 1.640885e+00 2.529771e+00 2.248897e+00 4.670099e+00 8.887502e+00 3.297897e+00 3.217171e+00 2.336350e+00 2.898715e+00 1.827020e+00 1.527662e+00 3.037495e+00 7.465078e-01 3.350310e-01 2.740160e-01 3.309202e-01 5.538823e-01 1.033296e+00 6.091101e-01 5.766214e-01 4.044030e-01 4.089775e-01 3.377318e-01 3.143339e-01 3.747132e-01
<GCONST> 1.203563e+02
<STATE> 4
<MEAN> 39
 7.115196e+00 6.095242e+00 5.806696e+00 1.059855e+01 -1.096100e+01 -2.239865e+01 -1.644969e+01 1.665581e+01 -2.843928e-01 -1.036404e+01 -9.362299e+00 1.729148e+00 6.708092e+01 2.572170e-01 -4.468024e-01 -6.106896e-02 3.281580e-03 3.496592e-01 1.744907e-02 2.102138e-01 -1.144269e-01 -5.725055e-01 -2.339118e-01 -1.537873e-02 1.429082e-01 4.770537e-01 -1.603786e-01 3.779687e-03 -9.089443e-02 -3.084704e-02 1.590776e-01 2.957037e-01 1.109021e-01 -1.554517e-01 -1.001500e-01 1.552171e-01 6.592483e-02 -2.528878e-02 -1.563168e-01
<VARIANCE> 39
 1.376754e+01 4.808061e+01 5.760609e+01 3.196370e+01 5.859877e+01 7.465897e+01 6.592252e+01 4.407228e+01 7.636652e+01 3.703695e+01 4.501499e+01 3.091403e+01 2.453164e+01 2.652623e+00 3.872354e+00 3.079580e+00 3.100953e+00 3.158167e+00 7.660596e+00 4.081026e+00 4.020604e+00 4.594940e+00 4.082398e+00 2.753763e+00 2.010545e+00 2.645684e+00 4.848234e-01 5.576305e-01 2.858165e-01 5.568447e-01 5.182591e-01 1.212997e+00 3.954550e-01 7.204103e-01 6.403238e-01 7.366022e-01 5.287955e-01 4.172776e-01 2.998105e-01
<GCONST> 1.282869e+02
<STATE> 5
<MEAN> 39
 -3.402750e+00 8.486148e+00 -3.027052e+00 1.167099e+01 1.389515e+00 1.229110e-01 -3.590621e+00 6.259644e+00 -7.789283e+00 -2.685281e+00 -7.603063e+00 -1.035899e-01 5.419165e+01 -5.265120e-01 2.791604e-01 8.362953e-02 1.012900e-01 5.733624e-02 4.589352e-01 -7.202756e-02 -8.019794e-02 4.084313e-01 3.117566e-01 2.339586e-02 -7.485919e-02 -6.017250e-01 -2.205967e-03 3.961727e-04 2.663812e-02 -1.121424e-02 -1.048664e-02 -2.863435e-02 -4.773306e-02 2.593567e-02 4.951731e-02 -3.127538e-02 -3.240927e-02 3.101612e-03 1.326654e-02
<VARIANCE> 39
 7.833652e+01 4.496981e+01 2.711484e+01 2.445585e+01 2.918332e+01 5.964740e+01 3.486366e+01 2.424170e+01 7.557108e+01 2.996038e+01 2.970435e+01 1.233858e+01 7.299717e+01 3.124920e-01 7.781034e-01 8.021185e-01 1.272357e+00 1.133367e+00 1.370034e+00 1.753413e+00 1.338307e+00 1.815055e+00 1.054096e+00 1.516617e+00 9.839670e-01 2.690551e-01 3.956469e-02 7.393457e-02 1.138915e-01 2.140865e-01 1.984130e-01 2.042753e-01 3.336025e-01 2.265367e-01 3.234316e-01 1.969075e-01 2.828221e-01 1.744718e-01 2.040102e-02
<GCONST> 9.310618e+01
<TRANSP> 6
 0.000000e+00 9.166778e-01 8.332223e-02 0.000000e+00 0.000000e+00 0.000000e+00
 0.000000e+00 9.484861e-01 5.151383e-02 0.000000e+00 0.000000e+00 0.000000e+00
 0.000000e+00 0.000000e+00 9.323887e-01 6.761125e-02 0.000000e+00 0.000000e+00
 0.000000e+00 0.000000e+00 0.000000e+00 9.656417e-01 3.435829e-02 0.000000e+00
 0.000000e+00 0.000000e+00 0.000000e+00 0.000000e+00 9.738979e-01 2.610204e-02
 0.000000e+00 0.000000e+00 0.000000e+00 0.000000e+00 0.000000e+00 0.000000e+00
<ENDHMM>
