~o
<STREAMINFO> 1 39
<VECSIZE> 39<NULLD><MFCC_D_A_0><DIAGC>
~h "sil"
<BEGINHMM>
<NUMSTATES> 6
<STATE> 2
<MEAN> 39
 -7.630125e+00 2.324137e+00 -8.200971e+00 5.704166e+00 -2.710376e+00 7.161326e+00 -1.513009e+00 6.381852e+00 -1.889150e+00 3.311007e+00 -2.509044e+00 -1.187450e+00 5.237372e+01 3.157748e-01 3.700712e-01 3.123053e-01 5.004604e-02 1.496458e-02 -4.300501e-01 -6.522452e-01 -7.362186e-01 -1.042050e+00 -1.794061e+00 -1.590096e+00 1.940267e-02 9.759026e-02 1.003067e-02 2.252403e-02 1.183430e-01 2.522188e-02 -6.440616e-02 8.353785e-02 5.051055e-02 2.839984e-02 1.112471e-01 1.738918e-01 6.765621e-02 -1.676589e-01 2.401553e-02
<VARIANCE> 39
 9.250965e-01 8.370477e-01 1.127175e+00 7.898591e-01 4.960098e-01 1.611818e+00 1.298388e+00 2.436467e+00 2.453564e+00 8.044287e+00 5.639766e+00 2.919191e+00 7.488672e-01 1.480444e-02 2.282473e-02 1.014052e-01 1.332054e-02 1.154277e-01 2.452675e-02 3.449842e-02 6.030504e-02 6.456368e-02 4.357128e-02 1.489485e-01 3.184637e-01 8.543504e-03 2.030188e-03 8.970141e-03 1.593402e-02 2.236085e-03 1.004384e-02 2.314742e-02 3.201768e-02 3.860599e-02 4.172749e-02 1.698739e-02 4.492533e-02 1.671065e-02 8.926545e-04
<GCONST> -2.028485e+01
<STATE> 3
<MEAN> 39
 -6.496650e+00 3.459247e+00 -6.720268e+00 5.935045e+00 -2.197642e+00 7.608281e+00 -2.427073e+00 4.843074e+00 -3.994993e+00 -1.922185e+00 -7.327174e+00 -2.800596e+00 5.308771e+01 -1.005521e-01 -1.409508e-01 1.692356e-01 1.962622e-01 3.448283e-01 1.868342e-01 2.220243e-01 -3.858621e-02 2.497142e-01 -1.744667e-01 3.446983e-01 4.146464e-01 8.284435e-02 -6.018376e-02 -8.998142e-02 -6.481083e-02 -8.408968e-02 -2.915925e-01 -1.913085e-01 -1.831758e-02 8.464418e-02 2.812729e-01 4.749173e-01 4.527199e-01 1.951007e-01 -1.204457e-02
<VARIANCE> 39
 9.250965e-01 5.341015e-01 9.407276e-01 5.431371e-01 3.287735e+00 5.673299e+00 2.127020e+00 4.189627e-01 1.516619e+00 1.068715e+00 2.992873e+00 4.544552e+00 7.488672e-01 1.001170e-01 1.007392e-01 2.245042e-02 8.044565e-02 2.644429e-01 1.868372e-01 4.448378e-02 1.815130e-01 1.542201e-01 5.355447e-01 4.720253e-01 6.479093e-01 1.300916e-02 2.869955e-02 2.745905e-02 4.236661e-03 5.141498e-02 2.782621e-01 1.371674e-01 6.833848e-02 3.310838e-03 1.310216e-02 2.722184e-03 9.045637e-02 9.744515e-02 1.408780e-03
<GCONST> 3.796949e-01
<STATE> 4
<MEAN> 39
 -6.372822e+00 3.350844e+00 -6.847984e+00 4.642921e+00 -5.892871e+00 3.552572e+00 -4.223795e+00 5.655641e+00 -1.468320e+00 1.228283e+00 -4.108805e+00 -1.020611e+00 5.325257e+01 -5.613039e-02 -1.108263e-01 -2.485549e-01 -3.746546e-01 -4.450089e-01 -4.162672e-01 -3.526087e-01 4.338200e-01 2.797968e-01 6.531231e-01 3.484797e-01 -2.293334e-02 -7.708937e-02 -8.321479e-02 -8.268840e-02 -7.166272e-02 -5.538663e-04 1.711046e-01 1.952036e-01 1.400355e-01 7.273313e-02 -6.264458e-02 -1.335879e-02 -3.844412e-02 -8.350269e-02 -4.895979e-02
<VARIANCE> 39
 9.250965e-01 4.193253e-01 9.407276e-01 5.050957e+00 7.423221e+00 1.985434e+00 3.261169e+00 8.498515e+00 5.767381e+00 1.697955e+00 1.821555e+00 1.791447e+00 7.488672e-01 2.018349e-01 2.422056e-01 8.935857e-02 6.825330e-01 2.364949e+00 9.242918e-01 1.554371e-01 1.954528e-01 3.992770e-01 1.006325e-01 2.480866e-01 2.853631e-01 4.941079e-02 2.856878e-02 3.334557e-02 7.478932e-03 1.535468e-01 4.321244e-01 9.860156e-02 5.042973e-02 2.047602e-02 7.232758e-02 2.575989e-02 6.650694e-02 1.104852e-01 4.901237e-03
<GCONST> 2.380500e+01
<STATE> 5
<MEAN> 39
 -7.432302e+00 1.256447e+00 -8.307538e+00 3.876953e+00 -4.889880e+00 5.511904e+00 -2.888256e+00 7.450266e+00 -1.177366e-01 2.019550e+00 -5.318244e+00 -3.057328e+00 5.281208e+01 -3.502162e-03 -1.075217e-02 -8.927374e-03 5.416410e-03 1.728764e-02 5.816418e-03 3.026744e-02 9.083592e-03 1.606240e-02 -2.234204e-02 -2.926815e-02 5.850951e-03 1.047980e-03 7.646621e-03 8.708487e-03 5.686832e-03 2.091481e-03 1.417828e-03 -4.111861e-04 -3.408051e-03 -1.436319e-03 8.771568e-03 1.988307e-03 2.452322e-03 1.163039e-02 3.175921e-03
<VARIANCE> 39
 9.250965e-01 1.158876e+00 2.984978e+00 3.792565e+00 4.852029e+00 4.438323e+00 5.245006e+00 4.706121e+00 6.632266e+00 5.949491e+00 5.992044e+00 4.812633e+00 7.488672e-01 7.583380e-02 1.325622e-01 3.899348e-01 5.116254e-01 6.329359e-01 4.598123e-01 7.223145e-01 7.225634e-01 9.200866e-01 6.970778e-01 6.813866e-01 7.019902e-01 1.616006e-02 1.593980e-02 2.642502e-02 8.492607e-02 1.080560e-01 1.418996e-01 9.314709e-02 1.474617e-01 1.682787e-01 1.875664e-01 1.394167e-01 1.359527e-01 1.446104e-01 3.220665e-03
<GCONST> 3.999651e+01
<TRANSP> 6
 0.000000e+00 1.000000e+00 0.000000e+00 0.000000e+00 0.000000e+00 0.000000e+00
 0.000000e+00 7.500000e-01 2.500000e-01 0.000000e+00 0.000000e+00 0.000000e+00
 0.000000e+00 0.000000e+00 7.500000e-01 2.500000e-01 0.000000e+00 0.000000e+00
 0.000000e+00 0.000000e+00 0.000000e+00 8.571427e-01 1.428573e-01 0.000000e+00
 0.000000e+00 0.000000e+00 0.000000e+00 0.000000e+00 9.876543e-01 1.234568e-02
 0.000000e+00 0.000000e+00 0.000000e+00 0.000000e+00 0.000000e+00 0.000000e+00
<ENDHMM>
