~o
<STREAMINFO> 1 39
<VECSIZE> 39<NULLD><MFCC_D_A_0><DIAGC>
~h "close"
<BEGINHMM>
<NUMSTATES> 6
<STATE> 2
<MEAN> 39
 -7.447659e+00 1.327804e+00 -8.221065e+00 4.098694e+00 -4.534208e+00 5.997061e+00 -1.939095e+00 7.793828e+00 -3.910030e-01 1.463843e+00 -5.270122e+00 -2.345487e+00 5.296914e+01 -4.299467e-03 -7.083541e-03 -4.049444e-03 5.038370e-03 -9.696673e-04 -2.390963e-02 -1.029295e-02 -1.415873e-02 2.399833e-02 6.331593e-03 -2.412430e-02 -2.904660e-02 1.724198e-03 -9.711162e-03 -3.347219e-03 8.192110e-03 -8.063969e-04 1.470343e-02 1.023689e-02 2.295919e-03 3.162376e-03 -8.824072e-04 1.379759e-02 1.774876e-02 5.715473e-03 1.682605e-03
<VARIANCE> 39
 9.250965e-01 1.180347e+00 2.282075e+00 4.181540e+00 5.799038e+00 6.351350e+00 5.975102e+00 5.782624e+00 7.282838e+00 6.257050e+00 6.218218e+00 6.130851e+00 7.488672e-01 7.547051e-02 1.254826e-01 2.320697e-01 3.879282e-01 5.382786e-01 6.419804e-01 6.685762e-01 6.458699e-01 7.344142e-01 6.602916e-01 6.342230e-01 5.465336e-01 1.945611e-02 1.569145e-02 2.473238e-02 4.667574e-02 7.214597e-02 1.101279e-01 1.248129e-01 1.313994e-01 1.343557e-01 1.475885e-01 1.296770e-01 1.240975e-01 1.003160e-01 4.714414e-03
<GCONST> 3.807716e+01
<STATE> 3
<MEAN> 39
 -9.258935e+00 2.480375e+00 -7.216668e+00 5.217587e+00 -1.949401e+00 7.413784e+00 -1.007914e+00 7.993484e+00 1.328408e-01 1.964223e+00 -3.926434e+00 -1.572069e+00 5.174178e+01 -6.294750e-01 -1.471342e-01 7.198964e-01 -9.696835e-01 1.428246e+00 -6.137522e-01 -5.846975e-02 -6.949369e-01 -2.984987e-01 -2.677599e-01 7.530652e-01 7.887204e-01 8.996434e-01 -1.862361e-01 -1.201087e-01 2.891043e-01 -2.747043e-01 3.778157e-01 -4.333679e-01 -1.795721e-01 -4.356810e-01 -2.655701e-01 -2.541795e-01 1.613607e-01 3.619654e-01 4.166081e-01
<VARIANCE> 39
 3.444015e+00 4.580533e+00 4.540354e+00 1.299268e+01 1.579883e+01 1.232243e+01 5.803344e+00 7.602612e+00 7.509232e+00 6.817931e+00 7.550085e+00 6.807027e+00 8.148560e+00 1.120277e+00 4.236317e-01 1.392490e+00 1.705240e+00 2.771037e+00 2.030623e+00 1.229512e+00 2.665739e+00 2.063448e+00 1.670779e+00 2.052435e+00 1.521771e+00 9.586201e-01 1.764678e-01 8.845264e-02 2.108860e-01 2.876949e-01 2.770362e-01 3.153513e-01 2.658512e-01 5.079563e-01 4.468979e-01 2.987997e-01 5.049016e-01 2.420120e-01 1.034044e-01
<GCONST> 8.512610e+01
<STATE> 4
<MEAN> 39
 -6.276320e+00 -1.360013e+00 -1.656085e+00 3.548716e+00 4.790215e+00 -7.614660e+00 -8.737906e+00 3.439873e+00 -4.114546e+00 -4.542058e+00 -5.524631e-01 7.074521e+00 6.485099e+01 1.442702e+00 8.671688e-02 -4.011162e-01 4.157259e-01 1.056815e-01 -1.574645e+00 -6.734999e-01 6.405174e-01 -1.706025e-01 2.030043e-01 -1.541698e-01 1.590224e-01 1.053126e+00 1.252773e-01 2.428938e-02 -2.008410e-01 3.035668e-02 -8.862431e-02 7.566261e-02 1.210131e-01 2.898971e-01 5.818220e-02 1.781901e-01 -1.047089e-01 -1.622668e-01 -8.655465e-02
<VARIANCE> 39
 1.092895e+02 4.431998e+01 3.815375e+01 4.728796e+01 4.215278e+01 6.270761e+01 4.490516e+01 7.452215e+01 4.946192e+01 4.481184e+01 6.752347e+01 3.738265e+01 2.742020e+01 4.581965e+00 5.518223e+00 3.652027e+00 2.965050e+00 3.451005e+00 3.745097e+00 3.321099e+00 7.641035e+00 5.097302e+00 4.985707e+00 4.167387e+00 5.003090e+00 2.330322e+00 6.414757e-01 1.107508e+00 4.642391e-01 6.072407e-01 6.427804e-01 7.555819e-01 6.025752e-01 1.356396e+00 9.936036e-01 6.755449e-01 6.276617e-01 6.981970e-01 3.819797e-01
<GCONST> 1.363105e+02
<STATE> 5
<MEAN> 39
 -3.414359e+00 4.704348e+00 4.026329e+00 -4.397443e-01 -2.747271e+00 -1.073130e+01 -1.158201e+00 1.012680e+01 -1.867743e+00 2.272598e+00 -3.521731e+00 -1.571478e+00 6.677287e+01 -4.052876e-01 3.035321e-02 3.597831e-01 -1.452421e-01 -2.317877e-01 3.902881e-01 3.182996e-01 -1.042622e-01 5.737484e-02 -5.713339e-02 9.954194e-03 -1.472776e-01 -2.370430e-01 -2.070369e-02 8.270799e-03 3.730671e-02 2.686944e-02 -2.983595e-02 4.086757e-02 -7.378143e-03 -4.747929e-02 1.023684e-02 -3.438624e-02 1.078470e-02 5.309277e-03 -2.969654e-02
<VARIANCE> 39
 2.161828e+02 3.359979e+01 2.010956e+02 3.907910e+01 4.778669e+01 1.758703e+02 9.484138e+01 9.931091e+01 3.240500e+01 2.216922e+01 4.952298e+01 2.644577e+01 3.767250e+01 1.906767e+00 8.851539e-01 2.631086e+00 2.013519e+00 1.669283e+00 2.357504e+00 2.029227e+00 2.297071e+00 1.701042e+00 1.421283e+00 1.464962e+00 1.220680e+00 7.138317e-01 1.540209e-01 1.082101e-01 2.933578e-01 3.240438e-01 1.986306e-01 3.015759e-01 2.729012e-01 3.657569e-01 3.053142e-01 2.555123e-01 2.283769e-01 2.252242e-01 7.688161e-02
<GCONST> 1.116837e+02
<TRANSP> 6
 0.000000e+00 8.333240e-01 1.666760e-01 0.000000e+00 0.000000e+00 0.000000e+00
 0.000000e+00 9.765191e-01 2.348091e-02 0.000000e+00 0.000000e+00 0.000000e+00
 0.000000e+00 0.000000e+00 8.062862e-01 1.937138e-01 0.000000e+00 0.000000e+00
 0.000000e+00 0.000000e+00 0.000000e+00 9.304852e-01 6.951480e-02 0.000000e+00
 0.000000e+00 0.000000e+00 0.000000e+00 0.000000e+00 9.760743e-01 2.392568e-02
 0.000000e+00 0.000000e+00 0.000000e+00 0.000000e+00 0.000000e+00 0.000000e+00
<ENDHMM>
