~o
<STREAMINFO> 1 39
<VECSIZE> 39<NULLD><MFCC_D_A_0><DIAGC>
~h "open"
<BEGINHMM>
<NUMSTATES> 6
<STATE> 2
<MEAN> 39
 -1.766978e+01 3.726480e+00 -7.459273e+00 8.054417e+00 1.990913e+00 4.002521e+00 -4.464728e+00 7.763327e+00 5.093899e-01 3.047535e+00 -6.428473e+00 1.421435e+00 4.414041e+01 -2.272681e-01 -2.105788e-01 -1.229245e-01 -1.282247e-01 -2.799204e-02 2.953104e-02 7.109496e-02 6.933297e-02 8.217690e-02 6.893355e-02 2.106975e-02 -1.469572e-02 -9.144489e-02 2.640003e-02 2.672016e-02 8.128362e-03 -3.666134e-03 -1.707903e-02 -1.426982e-02 -1.753816e-02 -1.773202e-02 -4.300113e-02 -2.320296e-03 2.444938e-02 1.422076e-02 1.479986e-02
<VARIANCE> 39
 1.001355e+01 1.029477e+01 1.452569e+01 1.797848e+01 2.301527e+01 1.581862e+01 1.832636e+01 1.313845e+01 2.820520e+01 1.474034e+01 2.005261e+01 9.413843e+00 4.797127e+00 1.522104e-01 2.330884e-01 2.578695e-01 4.732420e-01 7.022195e-01 9.743872e-01 9.777434e-01 7.970309e-01 1.292187e+00 8.918743e-01 1.047078e+00 7.921937e-01 5.873508e-02 1.721560e-02 3.050119e-02 3.893055e-02 7.111042e-02 1.179554e-01 1.824646e-01 1.507601e-01 1.399989e-01 2.312938e-01 1.422942e-01 1.502490e-01 1.251588e-01 6.591635e-03
<GCONST> 6.359912e+01
<STATE> 3
<MEAN> 39
 -1.179655e+01 8.472564e+00 -1.386572e+00 1.173970e+01 2.725927e+00 1.992873e+00 -6.193673e+00 6.005144e+00 6.997923e-01 4.764647e+00 -4.321311e+00 1.673426e+00 4.836428e+01 5.253304e-01 2.465343e-01 -7.452294e-04 -1.101364e-01 -2.328696e-01 -2.469778e-01 -1.048957e-01 -1.118526e-01 -1.318097e-01 -1.967688e-01 -1.600295e-01 -1.537504e-01 2.881335e-01 3.904884e-01 1.066665e-01 -1.185708e-02 -1.046864e-01 -2.601572e-01 -2.617984e-01 2.291631e-04 1.046479e-01 1.243520e-02 -1.255697e-01 -8.483928e-02 -8.557824e-02 2.619036e-01
<VARIANCE> 39
 5.005503e+01 3.515920e+01 3.115898e+01 1.745233e+01 2.179942e+01 2.043951e+01 3.408026e+01 2.153984e+01 3.259021e+01 1.361235e+01 2.644563e+01 1.130882e+01 2.044300e+01 2.922502e+00 1.744698e+00 1.519252e+00 1.486003e+00 1.963003e+00 2.536674e+00 2.698205e+00 1.492731e+00 1.743809e+00 1.385851e+00 1.774335e+00 1.288127e+00 1.188109e+00 5.744159e-01 2.749089e-01 1.961266e-01 1.954637e-01 5.242555e-01 8.838717e-01 5.745023e-01 4.478719e-01 3.190957e-01 2.769099e-01 3.376607e-01 2.399854e-01 2.842337e-01
<GCONST> 1.068523e+02
<STATE> 4
<MEAN> 39
 5.563560e+00 6.039754e+00 3.033489e+00 9.150741e+00 -9.956633e+00 -1.924811e+01 -1.452576e+01 1.567781e+01 -3.923027e-01 -8.782753e+00 -9.189167e+00 1.220611e+00 6.517176e+01 5.876202e-01 -2.973290e-01 3.809403e-02 1.598341e-02 8.556979e-03 -4.358793e-01 1.162550e-01 1.015990e-01 -4.772276e-01 -3.928151e-01 -5.814589e-02 1.034514e-01 6.809677e-01 -1.387602e-01 -3.811850e-02 -2.372915e-02 5.085458e-02 1.003841e-01 1.310058e-01 6.341154e-02 -6.111532e-02 -4.902669e-02 8.633197e-02 5.947954e-02 2.297639e-02 -1.122275e-01
<VARIANCE> 39
 3.097601e+01 4.401382e+01 1.103661e+02 4.597588e+01 5.964511e+01 1.332679e+02 8.682030e+01 4.773026e+01 7.104054e+01 4.979466e+01 4.289426e+01 2.940866e+01 4.580848e+01 4.307503e+00 3.694596e+00 3.290968e+00 3.199975e+00 4.518150e+00 1.014092e+01 4.137625e+00 4.471282e+00 4.471678e+00 4.368604e+00 2.638987e+00 1.985799e+00 3.228558e+00 5.413229e-01 5.476467e-01 3.193434e-01 5.653246e-01 5.389146e-01 1.352082e+00 4.338998e-01 7.740373e-01 6.350054e-01 7.520929e-01 5.013248e-01 4.195263e-01 3.423469e-01
<GCONST> 1.338320e+02
<STATE> 5
<MEAN> 39
 -3.380452e+00 8.469755e+00 -3.032316e+00 1.166098e+01 1.390895e+00 9.271677e-02 -3.593528e+00 6.274015e+00 -7.809849e+00 -2.701700e+00 -7.611773e+00 -9.768002e-02 5.422011e+01 -5.259653e-01 2.804958e-01 8.137521e-02 1.014272e-01 5.797978e-02 4.602006e-01 -6.881950e-02 -8.236950e-02 4.052604e-01 3.132857e-01 2.502696e-02 -7.783012e-02 -6.024297e-01 -2.335595e-03 1.075162e-03 2.667240e-02 -1.061360e-02 -1.200764e-02 -2.834073e-02 -4.807241e-02 2.561871e-02 5.060389e-02 -3.236630e-02 -3.196814e-02 3.041673e-03 1.267187e-02
<VARIANCE> 39
 7.843986e+01 4.504456e+01 2.708160e+01 2.446858e+01 2.913946e+01 6.002105e+01 3.482927e+01 2.434244e+01 7.570915e+01 3.007277e+01 2.971530e+01 1.236558e+01 7.328428e+01 3.121717e-01 7.782972e-01 8.035823e-01 1.273326e+00 1.131780e+00 1.368397e+00 1.757806e+00 1.339937e+00 1.820196e+00 1.054703e+00 1.516412e+00 9.908075e-01 2.690909e-01 3.954689e-02 7.418174e-02 1.138088e-01 2.140222e-01 2.000157e-01 2.041937e-01 3.332800e-01 2.265739e-01 3.236839e-01 1.972863e-01 2.829750e-01 1.748192e-01 2.056269e-02
<GCONST> 9.316351e+01
<TRANSP> 6
 0.000000e+00 9.166687e-01 8.333130e-02 0.000000e+00 0.000000e+00 0.000000e+00
 0.000000e+00 9.441630e-01 5.583699e-02 0.000000e+00 0.000000e+00 0.000000e+00
 0.000000e+00 0.000000e+00 9.135062e-01 8.649386e-02 0.000000e+00 0.000000e+00
 0.000000e+00 0.000000e+00 0.000000e+00 9.702724e-01 2.972759e-02 0.000000e+00
 0.000000e+00 0.000000e+00 0.000000e+00 0.000000e+00 9.739471e-01 2.605287e-02
 0.000000e+00 0.000000e+00 0.000000e+00 0.000000e+00 0.000000e+00 0.000000e+00
<ENDHMM>
