~o
<STREAMINFO> 1 39
<VECSIZE> 39<NULLD><MFCC_D_A_0><DIAGC>
~h "sil"
<BEGINHMM>
<NUMSTATES> 6
<STATE> 2
<MEAN> 39
 -7.630125e+00 2.324137e+00 -8.200972e+00 5.704166e+00 -2.710376e+00 7.161326e+00 -1.513009e+00 6.381852e+00 -1.889150e+00 3.311007e+00 -2.509044e+00 -1.187450e+00 5.237372e+01 3.157748e-01 3.700712e-01 3.123053e-01 5.004604e-02 1.496458e-02 -4.300501e-01 -6.522452e-01 -7.362186e-01 -1.042050e+00 -1.794061e+00 -1.590096e+00 1.940267e-02 9.759026e-02 1.003067e-02 2.252404e-02 1.183430e-01 2.522188e-02 -6.440616e-02 8.353785e-02 5.051054e-02 2.839983e-02 1.112471e-01 1.738918e-01 6.765620e-02 -1.676589e-01 2.401553e-02
<VARIANCE> 39
 9.250965e-01 8.370476e-01 1.127175e+00 7.898590e-01 4.960097e-01 1.611818e+00 1.298388e+00 2.436467e+00 2.453564e+00 8.044286e+00 5.639765e+00 2.919191e+00 7.488672e-01 1.480444e-02 2.282473e-02 1.014052e-01 1.332054e-02 1.154277e-01 2.452675e-02 3.449842e-02 6.030504e-02 6.456369e-02 4.357127e-02 1.489484e-01 3.184637e-01 8.543504e-03 2.030188e-03 8.970142e-03 1.593402e-02 2.236085e-03 1.004384e-02 2.314741e-02 3.201768e-02 3.860598e-02 4.172748e-02 1.698739e-02 4.492533e-02 1.671065e-02 8.926545e-04
<GCONST> -2.028486e+01
<STATE> 3
<MEAN> 39
 -6.496650e+00 3.459247e+00 -6.720268e+00 5.935045e+00 -2.197642e+00 7.608281e+00 -2.427073e+00 4.843073e+00 -3.994993e+00 -1.922185e+00 -7.327174e+00 -2.800596e+00 5.308771e+01 -1.005521e-01 -1.409508e-01 1.692356e-01 1.962622e-01 3.448282e-01 1.868342e-01 2.220243e-01 -3.858621e-02 2.497142e-01 -1.744667e-01 3.446983e-01 4.146464e-01 8.284435e-02 -6.018377e-02 -8.998142e-02 -6.481083e-02 -8.408967e-02 -2.915925e-01 -1.913085e-01 -1.831759e-02 8.464418e-02 2.812729e-01 4.749173e-01 4.527199e-01 1.951007e-01 -1.204457e-02
<VARIANCE> 39
 9.250965e-01 5.341014e-01 9.407276e-01 5.431370e-01 3.287735e+00 5.673298e+00 2.127020e+00 4.189627e-01 1.516619e+00 1.068714e+00 2.992873e+00 4.544552e+00 7.488672e-01 1.001169e-01 1.007392e-01 2.245042e-02 8.044563e-02 2.644429e-01 1.868372e-01 4.448378e-02 1.815130e-01 1.542200e-01 5.355447e-01 4.720254e-01 6.479093e-01 1.300916e-02 2.869955e-02 2.745905e-02 4.236661e-03 5.141498e-02 2.782621e-01 1.371674e-01 6.833847e-02 3.310838e-03 1.310216e-02 2.722184e-03 9.045637e-02 9.744515e-02 1.408780e-03
<GCONST> 3.796873e-01
<STATE> 4
<MEAN> 39
 -6.372822e+00 3.350844e+00 -6.847984e+00 4.642921e+00 -5.892871e+00 3.552572e+00 -4.223795e+00 5.655641e+00 -1.468320e+00 1.228283e+00 -4.108805e+00 -1.020611e+00 5.325257e+01 -5.613040e-02 -1.108263e-01 -2.485549e-01 -3.746546e-01 -4.450088e-01 -4.162673e-01 -3.526087e-01 4.338200e-01 2.797968e-01 6.531231e-01 3.484797e-01 -2.293332e-02 -7.708937e-02 -8.321478e-02 -8.268840e-02 -7.166271e-02 -5.538508e-04 1.711046e-01 1.952036e-01 1.400355e-01 7.273313e-02 -6.264457e-02 -1.335879e-02 -3.844413e-02 -8.350269e-02 -4.895979e-02
<VARIANCE> 39
 9.250965e-01 4.193252e-01 9.407276e-01 5.050956e+00 7.423221e+00 1.985434e+00 3.261168e+00 8.498512e+00 5.767380e+00 1.697954e+00 1.821554e+00 1.791447e+00 7.488672e-01 2.018348e-01 2.422055e-01 8.935857e-02 6.825329e-01 2.364949e+00 9.242917e-01 1.554372e-01 1.954527e-01 3.992769e-01 1.006325e-01 2.480865e-01 2.853630e-01 4.941077e-02 2.856877e-02 3.334556e-02 7.478932e-03 1.535468e-01 4.321243e-01 9.860153e-02 5.042973e-02 2.047602e-02 7.232755e-02 2.575989e-02 6.650693e-02 1.104852e-01 4.901237e-03
<GCONST> 2.380500e+01
<STATE> 5
<MEAN> 39
 -7.432302e+00 1.256448e+00 -8.307538e+00 3.876953e+00 -4.889880e+00 5.511904e+00 -2.888256e+00 7.450266e+00 -1.177366e-01 2.019550e+00 -5.318244e+00 -3.057328e+00 5.281208e+01 -3.502159e-03 -1.075217e-02 -8.927361e-03 5.416416e-03 1.728763e-02 5.816412e-03 3.026744e-02 9.083587e-03 1.606241e-02 -2.234204e-02 -2.926816e-02 5.850934e-03 1.047979e-03 7.646619e-03 8.708486e-03 5.686830e-03 2.091481e-03 1.417833e-03 -4.111869e-04 -3.408053e-03 -1.436331e-03 8.771571e-03 1.988302e-03 2.452319e-03 1.163039e-02 3.175921e-03
<VARIANCE> 39
 9.250965e-01 1.158874e+00 2.984975e+00 3.792563e+00 4.852029e+00 4.438321e+00 5.244999e+00 4.706116e+00 6.632259e+00 5.949485e+00 5.992040e+00 4.812627e+00 7.488672e-01 7.583372e-02 1.325622e-01 3.899345e-01 5.116255e-01 6.329354e-01 4.598119e-01 7.223141e-01 7.225630e-01 9.200857e-01 6.970766e-01 6.813859e-01 7.019898e-01 1.616006e-02 1.593979e-02 2.642500e-02 8.492596e-02 1.080559e-01 1.418995e-01 9.314702e-02 1.474617e-01 1.682785e-01 1.875662e-01 1.394164e-01 1.359526e-01 1.446103e-01 3.220660e-03
<GCONST> 3.999644e+01
<TRANSP> 6
 0.000000e+00 1.000000e+00 0.000000e+00 0.000000e+00 0.000000e+00 0.000000e+00
 0.000000e+00 7.500000e-01 2.500000e-01 0.000000e+00 0.000000e+00 0.000000e+00
 0.000000e+00 0.000000e+00 7.500000e-01 2.500000e-01 0.000000e+00 0.000000e+00
 0.000000e+00 0.000000e+00 0.000000e+00 8.571427e-01 1.428573e-01 0.000000e+00
 0.000000e+00 0.000000e+00 0.000000e+00 0.000000e+00 9.876543e-01 1.234568e-02
 0.000000e+00 0.000000e+00 0.000000e+00 0.000000e+00 0.000000e+00 0.000000e+00
<ENDHMM>
