~o
<STREAMINFO> 1 39
<VECSIZE> 39<NULLD><MFCC_D_A_0><DIAGC>
~h "close"
<BEGINHMM>
<NUMSTATES> 6
<STATE> 2
<MEAN> 39
 0.000000e+00 0.000000e+00 0.000000e+00 0.000000e+00 0.000000e+00 0.000000e+00 0.000000e+00 0.000000e+00 0.000000e+00 0.000000e+00 0.000000e+00 0.000000e+00 0.000000e+00 0.000000e+00 0.000000e+00 0.000000e+00 0.000000e+00 0.000000e+00 0.000000e+00 0.000000e+00 0.000000e+00 0.000000e+00 0.000000e+00 0.000000e+00 0.000000e+00 0.000000e+00 0.000000e+00 0.000000e+00 0.000000e+00 0.000000e+00 0.000000e+00 0.000000e+00 0.000000e+00 0.000000e+00 0.000000e+00 0.000000e+00 0.000000e+00 0.000000e+00 0.000000e+00
<VARIANCE> 39
 9.250965e+01 3.045466e+01 9.407276e+01 4.302367e+01 4.215749e+01 1.254962e+02 6.215981e+01 4.189627e+01 3.779496e+01 3.341531e+01 3.096756e+01 1.952073e+01 7.488672e+01 1.480444e+00 1.086932e+00 1.419652e+00 1.332054e+00 1.522849e+00 2.452675e+00 1.725890e+00 1.847343e+00 1.814210e+00 1.578002e+00 1.437603e+00 1.205727e+00 8.543504e-01 1.599025e-01 1.624495e-01 1.648521e-01 2.236085e-01 2.392625e-01 3.636679e-01 2.579591e-01 3.310839e-01 3.114698e-01 2.722184e-01 2.613553e-01 2.258565e-01 8.926545e-02
<GCONST> 1.076946e+02
<STATE> 3
<MEAN> 39
 0.000000e+00 0.000000e+00 0.000000e+00 0.000000e+00 0.000000e+00 0.000000e+00 0.000000e+00 0.000000e+00 0.000000e+00 0.000000e+00 0.000000e+00 0.000000e+00 0.000000e+00 0.000000e+00 0.000000e+00 0.000000e+00 0.000000e+00 0.000000e+00 0.000000e+00 0.000000e+00 0.000000e+00 0.000000e+00 0.000000e+00 0.000000e+00 0.000000e+00 0.000000e+00 0.000000e+00 0.000000e+00 0.000000e+00 0.000000e+00 0.000000e+00 0.000000e+00 0.000000e+00 0.000000e+00 0.000000e+00 0.000000e+00 0.000000e+00 0.000000e+00 0.000000e+00
<VARIANCE> 39
 9.250965e+01 3.045466e+01 9.407276e+01 4.302367e+01 4.215749e+01 1.254962e+02 6.215981e+01 4.189627e+01 3.779496e+01 3.341531e+01 3.096756e+01 1.952073e+01 7.488672e+01 1.480444e+00 1.086932e+00 1.419652e+00 1.332054e+00 1.522849e+00 2.452675e+00 1.725890e+00 1.847343e+00 1.814210e+00 1.578002e+00 1.437603e+00 1.205727e+00 8.543504e-01 1.599025e-01 1.624495e-01 1.648521e-01 2.236085e-01 2.392625e-01 3.636679e-01 2.579591e-01 3.310839e-01 3.114698e-01 2.722184e-01 2.613553e-01 2.258565e-01 8.926545e-02
<GCONST> 1.076946e+02
<STATE> 4
<MEAN> 39
 0.000000e+00 0.000000e+00 0.000000e+00 0.000000e+00 0.000000e+00 0.000000e+00 0.000000e+00 0.000000e+00 0.000000e+00 0.000000e+00 0.000000e+00 0.000000e+00 0.000000e+00 0.000000e+00 0.000000e+00 0.000000e+00 0.000000e+00 0.000000e+00 0.000000e+00 0.000000e+00 0.000000e+00 0.000000e+00 0.000000e+00 0.000000e+00 0.000000e+00 0.000000e+00 0.000000e+00 0.000000e+00 0.000000e+00 0.000000e+00 0.000000e+00 0.000000e+00 0.000000e+00 0.000000e+00 0.000000e+00 0.000000e+00 0.000000e+00 0.000000e+00 0.000000e+00
<VARIANCE> 39
 9.250965e+01 3.045466e+01 9.407276e+01 4.302367e+01 4.215749e+01 1.254962e+02 6.215981e+01 4.189627e+01 3.779496e+01 3.341531e+01 3.096756e+01 1.952073e+01 7.488672e+01 1.480444e+00 1.086932e+00 1.419652e+00 1.332054e+00 1.522849e+00 2.452675e+00 1.725890e+00 1.847343e+00 1.814210e+00 1.578002e+00 1.437603e+00 1.205727e+00 8.543504e-01 1.599025e-01 1.624495e-01 1.648521e-01 2.236085e-01 2.392625e-01 3.636679e-01 2.579591e-01 3.310839e-01 3.114698e-01 2.722184e-01 2.613553e-01 2.258565e-01 8.926545e-02
<GCONST> 1.076946e+02
<STATE> 5
<MEAN> 39
 0.000000e+00 0.000000e+00 0.000000e+00 0.000000e+00 0.000000e+00 0.000000e+00 0.000000e+00 0.000000e+00 0.000000e+00 0.000000e+00 0.000000e+00 0.000000e+00 0.000000e+00 0.000000e+00 0.000000e+00 0.000000e+00 0.000000e+00 0.000000e+00 0.000000e+00 0.000000e+00 0.000000e+00 0.000000e+00 0.000000e+00 0.000000e+00 0.000000e+00 0.000000e+00 0.000000e+00 0.000000e+00 0.000000e+00 0.000000e+00 0.000000e+00 0.000000e+00 0.000000e+00 0.000000e+00 0.000000e+00 0.000000e+00 0.000000e+00 0.000000e+00 0.000000e+00
<VARIANCE> 39
 9.250965e+01 3.045466e+01 9.407276e+01 4.302367e+01 4.215749e+01 1.254962e+02 6.215981e+01 4.189627e+01 3.779496e+01 3.341531e+01 3.096756e+01 1.952073e+01 7.488672e+01 1.480444e+00 1.086932e+00 1.419652e+00 1.332054e+00 1.522849e+00 2.452675e+00 1.725890e+00 1.847343e+00 1.814210e+00 1.578002e+00 1.437603e+00 1.205727e+00 8.543504e-01 1.599025e-01 1.624495e-01 1.648521e-01 2.236085e-01 2.392625e-01 3.636679e-01 2.579591e-01 3.310839e-01 3.114698e-01 2.722184e-01 2.613553e-01 2.258565e-01 8.926545e-02
<GCONST> 1.076946e+02
<TRANSP> 6
 0.000000e+00 5.000000e-01 5.000000e-01 0.000000e+00 0.000000e+00 0.000000e+00
 0.000000e+00 4.000000e-01 3.000000e-01 3.000000e-01 0.000000e+00 0.000000e+00
 0.000000e+00 0.000000e+00 4.000000e-01 3.000000e-01 3.000000e-01 0.000000e+00
 0.000000e+00 0.000000e+00 0.000000e+00 4.000000e-01 3.000000e-01 3.000000e-01
 0.000000e+00 0.000000e+00 0.000000e+00 0.000000e+00 5.000000e-01 5.000000e-01
 0.000000e+00 0.000000e+00 0.000000e+00 0.000000e+00 0.000000e+00 0.000000e+00
<ENDHMM>
